#ifndef __AP_MOTORS_POLICY_DEF_H__
#define __AP_MOTORS_POLICY_DEF_H__

namespace copter_simulation {

const int STATE_SIZE = 9;
const int OB_SPACE_SIZE = 13;
const int AC_SPACE_SIZE = 5;
const int NUM_HIDDEN_LAYER = 2;
const int HIDDEN_LAYER_SIZE = 64;
const float FINAL_BIAS = 3.500000;

const float W0[OB_SPACE_SIZE][HIDDEN_LAYER_SIZE] = {
{-0.705489, 0.498430, -0.156025, 0.058910, -0.511835, 1.342734, 0.615942, -0.445914, -0.303564, 0.614823, -0.006251, 0.853462, 0.956426, 0.593454, -0.567348, -0.605932, -0.726962, 0.011473, 0.072126, 1.116329, -0.341477, 0.150487, 0.130251, -0.323229, -0.925714, -0.000360, 0.443217, 0.053748, 0.707781, 0.140840, 1.012241, -0.115610, -0.046245, 1.116897, 0.072586, -0.070099, -1.154518, -0.236128, 0.131699, -0.081331, -0.948685, -0.416882, 0.831524, 0.176852, 0.195298, -0.450202, -0.897945, 0.330807, -0.123288, 0.036697, -0.111925, 0.129134, -0.590275, 1.408441, 0.414625, -0.552931, 0.507304, -0.671745, -0.235459, -0.664068, 0.239504, -0.568791, 0.928877, 0.688612, },
{0.764912, -0.171441, 0.289811, -0.250582, 0.281143, -0.012595, 0.066787, -0.018254, 0.203513, 0.322448, 0.642561, 0.166037, -0.225132, -0.457162, 0.233697, 0.332069, 0.367259, 0.704517, -0.230767, -0.130173, -0.273798, -0.093475, 0.681293, -0.616139, -0.377516, 0.227256, 0.032694, -0.414696, 0.202131, 0.159348, 0.135420, -0.545398, -0.292624, 0.214752, 0.134004, -0.121378, -0.448413, 0.386660, 0.148133, 0.031573, -0.104654, -0.404348, 0.102658, 0.401639, 0.107508, -0.934443, -0.252544, 0.006486, 0.719507, -0.040850, 0.498530, 0.042867, 0.225517, -0.418915, 0.693626, -0.165269, 0.657028, 0.403372, -0.236227, 0.016314, -0.242908, 0.403552, -0.188125, -0.228502, },
{0.140171, 0.048115, 0.253342, -0.192725, -0.429478, -0.066082, 0.264555, -0.365571, -0.189724, 0.185610, -0.775530, -0.158037, -0.239172, -0.139246, 0.484301, -0.076839, -0.165019, -0.021494, 0.504596, -0.249165, -0.104282, 0.278082, 0.204047, 0.056008, -0.176411, -0.066165, 0.654830, -0.134921, 0.388119, -0.064724, -0.017890, -0.041090, 0.813354, -0.163756, 0.088567, 0.033089, -0.249263, 0.138528, 0.164513, 0.064772, 0.311525, -0.254950, -0.003789, -0.021170, 0.306986, 0.237939, -0.164754, -0.388068, 0.135890, 0.066923, -0.077565, -0.138394, 0.509844, 0.284049, -0.387822, -0.058603, 0.385577, 0.029428, 0.152038, 0.355761, 0.104703, 0.285248, 0.099338, 0.191046, },
{0.056716, 0.607371, 0.470885, 0.009808, -0.221198, 0.201026, 0.528156, -0.050051, 0.139091, 0.451262, 0.254135, 0.586274, -0.524849, -0.129297, -0.436710, 0.275968, 0.234206, -0.277699, -0.239709, 0.793417, -0.037153, -0.161699, -0.048776, 0.138407, -0.086193, 0.402607, 0.215777, 0.148046, -0.230357, -0.135168, 0.531257, 0.315169, -0.074943, 0.175324, 0.628522, -0.319462, -0.418379, 0.257188, 0.304599, 0.059027, -0.018880, 0.255733, 0.051801, -0.487738, -0.154422, -0.358385, 0.064129, 0.344267, 0.673002, -0.127322, -0.651230, 0.065567, -0.181456, 0.581435, 0.339409, -0.153016, -0.121234, -0.421332, -0.017389, -0.309198, 0.087417, -0.368530, 0.340917, 0.577082, },
{0.037875, 0.020273, -0.235256, 0.835423, 0.571671, -0.409083, -0.140473, -0.515673, 0.266239, 0.558476, -0.008493, -0.216279, -0.322692, -0.464947, 0.518591, 0.834086, 0.585803, -0.316682, -0.271300, -0.255635, 0.451625, 0.222438, -0.166042, 0.528199, -0.378475, -0.405951, -0.364667, -0.533135, 0.222983, 0.335918, 0.457001, -0.064963, -0.769054, -0.227056, 0.367603, -0.603153, -0.328777, 0.222831, -0.023147, 0.101307, -0.734097, 0.400439, 0.120096, -0.212643, -0.410612, -0.152329, 0.077824, -0.227129, 0.116626, -0.837779, 0.501737, -0.587947, -0.646923, 0.497382, 0.113309, -0.421739, 0.202566, -0.457622, -0.611696, 0.295394, 0.151496, -0.717317, 0.051288, -0.194277, },
{0.506504, 0.508119, 0.167263, 0.244957, 0.078580, -0.180285, -0.140243, 0.110218, -0.212785, 0.010181, -0.414711, -0.070454, -0.144427, 0.163834, -0.183487, -0.200443, 0.015290, -0.107572, 0.284712, -0.245934, 0.565746, -0.419553, -0.034730, 0.331022, -0.592630, -0.143452, 0.356476, 0.092033, 0.195040, -0.029599, -0.270151, -0.421319, 0.052905, 0.408271, -0.245737, 0.594961, -0.287842, -0.437128, -0.427112, -0.262031, 0.069812, -0.201994, 0.399794, -0.407233, 0.419587, -0.040600, -0.357170, 0.749751, 0.611314, 0.250035, 0.452718, 0.523223, 0.118524, -0.086675, 0.589354, -0.301770, 0.073128, -0.523160, -0.300664, 0.591321, -0.036656, 0.408249, 0.152897, -0.209669, },
{0.452803, -0.046913, 0.245505, -0.723290, 0.108575, -0.015344, 0.180212, 0.038974, -0.632122, 0.965380, 0.255175, 0.236813, 0.083291, -0.384958, 0.739332, -0.620787, 0.302098, 0.203581, -0.561529, -0.340439, 0.006469, 0.050977, -0.221544, 0.422367, -0.581641, 0.498164, -0.130270, -0.808052, -0.278123, -0.981949, -0.089695, 0.333177, -0.115572, -0.268214, -0.194672, 0.238407, -0.588473, -0.482615, -0.230994, -0.633278, -0.296824, 0.139469, -0.526443, -0.208854, 0.004328, -0.277907, 0.661516, 0.416870, -0.156800, 0.544937, -0.577905, -0.016832, -0.542087, 0.234965, 0.049097, -0.425395, -0.009239, 0.065750, -0.063972, 0.777449, -0.466762, -0.176561, -0.335110, -0.116064, },
{0.662758, 0.920366, 0.245084, -0.300125, -0.682564, -0.342283, 0.055456, -0.240354, -0.425792, -0.425087, 0.028864, -0.381278, -0.343771, -0.272115, 0.243660, 0.169010, -0.067732, -0.404378, -0.135706, -0.343742, 0.207904, 0.231092, 0.720517, -0.481218, 0.190271, 0.620153, 0.450294, 0.168143, 0.036586, 0.062711, 0.347529, 0.063401, -0.051941, 0.183218, 0.009242, -0.129510, 0.020283, 0.012690, -0.172958, 0.320810, 0.261825, 0.422711, 0.070343, 0.227442, 0.317641, -0.014367, -0.027893, 0.379126, 0.034568, -0.111336, 0.056882, -0.284367, 0.070983, -0.256200, -0.424213, -0.272914, -0.392522, -0.556780, 0.499793, 0.211254, -0.130764, 0.722743, -0.905879, -0.248580, },
{0.226332, 0.171193, -0.624811, 0.236646, -0.708423, -0.202664, -0.037526, 0.523670, -0.335513, 0.054378, 0.380991, 0.589762, 0.506622, -0.500935, -0.201104, 0.014967, 0.234536, 0.695876, -0.687416, 0.339876, 0.573987, 0.492372, 0.353236, -0.049581, -0.069162, 0.027387, -0.355536, 0.080171, -0.135700, 0.359755, -0.082957, -0.452840, -0.171251, -0.050158, -0.818162, -0.214398, 0.419041, 0.350940, -0.261859, 0.567450, -0.179528, -0.697110, 0.209312, 0.612178, 0.048075, 0.001013, 0.230570, -0.192102, 0.022080, -0.504182, 0.223736, -0.079648, 0.291518, 0.341206, -0.381839, -0.141869, -0.356873, -0.271602, -0.465507, -0.204755, 0.434320, 0.094428, -0.319612, 0.202550, },
{0.129483, -0.002488, -0.270621, -0.376548, 0.146589, 0.058316, 0.079535, 0.196545, 0.206126, -0.178704, -0.051323, 0.738903, 0.095157, 0.040551, 0.511928, -0.370212, -0.351182, -0.065992, 0.596437, 0.043106, -0.328924, -0.218552, -0.016953, -0.238544, 0.203714, 0.514229, 0.072515, -0.083042, 0.436814, 0.189128, 0.442884, -0.523179, -0.340408, -0.592446, 0.168969, 0.101775, -0.480729, 0.233285, -0.480087, -0.919852, 0.377384, 0.329885, -0.095790, -0.541823, -0.184472, 0.163571, 0.288840, 0.152176, 0.359137, 0.318298, 0.220437, 0.125376, 0.388470, 0.007287, 0.516482, -0.586127, -0.206946, 0.237856, 0.196621, -0.217430, 0.304652, 0.343592, -0.097162, -0.674167, },
{0.061167, 0.231301, 0.195535, -0.087969, -0.208201, 0.437758, 0.236015, -0.131227, 0.275444, 0.128602, -0.337260, 0.068921, 0.430922, -0.019142, 0.083022, -0.370332, -0.036172, 0.438054, 0.058549, 0.228158, 0.100224, -0.422302, 0.200008, 0.143140, -0.089086, 0.325282, -0.535269, 0.382269, -0.414247, -0.540103, -0.360133, -0.190586, -0.232848, 0.183229, 0.288123, 0.060745, 0.196690, 0.415701, -0.586955, -0.023031, -0.055058, 0.545933, 0.149514, 0.153544, 0.217183, 0.144352, 0.225286, -0.049709, -0.161941, -0.054078, 0.069195, 0.270832, -0.094337, -0.413207, -0.143169, -0.685692, 0.227289, -0.029821, 0.176771, -0.104659, -0.541396, 0.219997, 0.167841, -0.376561, },
{-0.093770, -0.159094, -0.465315, -0.602705, -0.599149, 0.287330, 0.441413, -0.283874, -0.474589, 0.357763, -0.273083, 0.244911, -0.271282, -0.218241, 0.112618, -0.452991, 0.033416, -0.078754, -0.188594, -0.104242, 0.357051, 0.777427, -0.557044, -0.289591, 0.251369, -0.457592, -0.400336, 0.558957, -0.473271, -0.133556, -0.495347, 0.256321, -0.421824, -0.175497, -0.012958, 0.674823, -0.118314, 0.172092, 0.016584, -0.283631, -0.493394, 0.217135, -0.176301, -0.204601, 0.636679, -0.546416, 0.158736, -0.192336, 0.232211, 0.174292, 0.167128, 0.760570, 0.302672, 0.116165, 0.188411, -0.001544, -0.252518, -0.561595, -0.001164, -0.125562, 0.247657, 0.004637, -0.034089, 0.503802, },
{0.002844, 0.579445, -0.293043, 0.170319, -0.150578, -0.123978, -0.632145, 0.811264, 0.540624, 0.147448, 0.417263, -0.174754, -0.663542, 0.281296, -0.332500, -0.079004, -0.248255, -0.245899, -0.174525, -0.066362, -0.127896, 0.005249, -0.188776, -0.183507, 0.225322, -0.142073, -0.385130, -0.058351, 0.325378, -0.021650, -0.231081, 0.022178, -0.697743, -0.254282, -0.023437, -0.084293, -0.181000, -0.289243, 0.619665, 0.191778, -0.179798, -0.037548, 0.302745, 0.263423, 0.259402, -0.262923, 0.216882, 0.506991, 0.535645, -0.261968, -0.255895, 0.487328, -0.535651, 0.146194, -0.019754, 0.227997, 0.112067, -0.323602, 0.427171, 0.158989, -0.483090, -0.329280, -0.199945, -0.157559, },
};

const float W_hidden[NUM_HIDDEN_LAYER - 1][HIDDEN_LAYER_SIZE][HIDDEN_LAYER_SIZE] = {
{
{-0.011525, 0.225173, 0.159622, 0.288888, 0.313495, -0.114260, 0.170838, -0.045088, -0.135595, -0.047957, 0.077145, -0.102149, -0.090337, 0.290355, 0.038731, 0.039388, 0.298813, -0.079645, 0.026699, -0.285883, 0.275999, -0.056473, 0.082671, 0.083963, -0.263433, 0.052927, 0.062570, 0.167012, 0.010952, 0.303138, -0.213590, -0.174308, 0.039681, -0.092617, 0.125699, -0.626798, 0.190247, 0.096160, -0.207764, 0.505012, 0.496921, 0.005002, -0.054755, -0.080630, -0.211997, -0.263904, -0.085548, -0.240178, 0.171537, 0.090827, 0.297034, 0.252304, -0.295054, 0.077755, 0.253304, 0.089360, -0.020190, -0.208774, -0.223207, -0.117742, 0.216599, -0.112628, -0.132394, 0.120530, },
{-0.134448, -0.308932, 0.060213, -0.142244, 0.027863, -0.050611, -0.090751, -0.275944, 0.117251, 0.002262, -0.140130, 0.387894, 0.018142, -0.011487, 0.231743, -0.084693, 0.215695, -0.015982, 0.312561, -0.072742, 0.232979, 0.191060, -0.118309, 0.139336, -0.006038, -0.199644, -0.185906, 0.154816, 0.121163, 0.430119, 0.180286, 0.143365, -0.357074, 0.237054, 0.284867, -0.162696, 0.119337, 0.108582, 0.064884, -0.164063, 0.165103, -0.184177, -0.248888, 0.138158, 0.108433, -0.131453, 0.348890, -0.033777, -0.002298, -0.048671, 0.121389, 0.051142, 0.179732, -0.130532, -0.035391, -0.221364, 0.037829, -0.230381, -0.026132, -0.076832, 0.207121, 0.173874, 0.034457, -0.538183, },
{-0.128728, -0.069443, 0.010011, 0.185161, 0.376053, 0.022323, 0.287324, 0.178249, -0.223544, -0.246608, 0.179865, 0.195918, 0.024165, -0.348242, 0.274460, -0.345267, -0.068053, -0.040614, 0.011450, -0.096020, 0.515735, -0.240730, -0.253307, -0.266766, 0.106730, 0.219059, -0.051394, 0.020830, 0.047320, 0.328188, -0.180092, -0.476804, -0.101332, -0.090055, -0.137756, -0.083858, 0.263004, -0.135815, 0.358223, -0.070793, 0.150230, 0.269490, -0.195344, 0.153246, -0.095786, 0.202237, -0.105348, 0.253467, 0.185590, 0.030493, 0.140078, 0.507099, -0.203963, 0.246916, 0.153650, 0.191290, 0.042072, -0.319317, 0.328664, -0.036536, 0.010752, 0.253320, 0.330490, 0.158951, },
{-0.130672, 0.043326, -0.090264, 0.021268, -0.202084, 0.190280, -0.063968, -0.152735, -0.132235, -0.027178, -0.214838, -0.042707, 0.206005, -0.338596, 0.239727, -0.101424, 0.152574, 0.369653, 0.132787, 0.075666, 0.313872, -0.383237, 0.068317, 0.331407, -0.026858, 0.009394, -0.052538, -0.074569, -0.120049, -0.180004, 0.342660, 0.029316, -0.106837, 0.258503, 0.264160, -0.077290, 0.077622, 0.437191, -0.091206, 0.379650, 0.013727, -0.083113, 0.038975, 0.113397, 0.136389, -0.115700, 0.429658, 0.424483, 0.115271, -0.110024, -0.233929, 0.254574, 0.086310, -0.229942, 0.457359, 0.445319, -0.624270, -0.047266, -0.464916, -0.129387, -0.165199, 0.316555, 0.194101, -0.374944, },
{-0.304168, -0.022702, 0.255801, 0.361262, -0.100110, 0.018597, 0.075089, -0.208892, 0.169446, -0.167200, -0.223636, -0.125833, -0.206605, 0.002501, 0.343481, -0.067954, -0.302412, 0.293703, -0.151791, -0.020563, -0.192884, -0.281686, -0.226786, -0.059180, 0.018145, -0.031225, 0.274236, 0.152547, 0.156211, -0.410863, -0.107741, -0.226446, -0.016090, 0.118705, -0.193666, 0.217344, 0.008300, -0.076945, 0.249108, -0.166739, -0.018299, 0.137873, -0.010328, -0.183719, 0.190049, 0.105369, -0.148107, 0.356711, -0.030249, -0.364999, -0.099834, 0.223517, 0.502202, 0.029791, 0.103733, 0.461080, -0.324504, -0.277433, 0.174552, 0.427616, -0.303445, -0.039465, -0.191081, 0.183766, },
{0.257734, 0.176432, -0.102163, -0.180512, -0.275631, -0.108068, -0.206860, 0.255547, 0.025660, 0.191432, -0.087110, 0.566849, -0.189544, 0.218593, -0.049157, -0.095615, 0.300055, -0.213328, 0.180324, 0.030138, -0.087073, 0.359688, 0.278122, -0.185081, 0.122719, -0.151670, 0.027549, 0.453759, 0.274446, 0.031233, -0.159073, -0.243877, -0.050888, -0.209771, 0.131240, -0.286214, 0.127642, -0.361648, -0.157413, -0.100299, -0.207181, 0.251736, -0.619300, 0.034828, -0.343780, -0.211332, -0.105108, 0.252244, -0.014839, 0.344423, -0.290257, -0.089121, 0.150639, 0.099150, -0.421458, -0.132323, 0.393897, 0.036334, 0.453644, -0.267621, 0.079057, 0.492634, -0.034003, 0.120419, },
{-0.277659, -0.003340, 0.189907, 0.145265, -0.096302, -0.004806, -0.232746, -0.034691, -0.169820, 0.084879, 0.440013, 0.346055, -0.137652, 0.192486, 0.092063, -0.107958, -0.100205, -0.034740, 0.152947, -0.154592, 0.290352, 0.187566, -0.092604, -0.249520, 0.094813, 0.082903, -0.195117, -0.130857, 0.040679, 0.141185, 0.087565, -0.034058, 0.401109, -0.482702, 0.074597, -0.089795, 0.421142, 0.172250, -0.221937, 0.280556, 0.124829, -0.026585, -0.104414, 0.103553, -0.699572, -0.099186, -0.148653, 0.319999, -0.021504, 0.177098, 0.028274, 0.202302, 0.142332, -0.019598, -0.047141, -0.244199, 0.027022, -0.053210, 0.270662, -0.407897, -0.046447, -0.007447, 0.377818, 0.122383, },
{-0.352391, 0.122614, -0.418132, -0.106382, -0.089510, -0.294321, -0.130423, 0.497946, -0.003415, 0.246046, -0.353401, -0.062275, 0.145921, -0.369992, 0.046056, 0.433524, 0.087469, -0.326886, 0.294322, -0.206259, 0.111000, 0.228498, -0.118278, 0.157260, 0.017804, 0.105237, -0.033952, 0.550114, -0.077642, -0.081408, 0.106071, 0.126237, -0.243397, 0.213206, 0.005949, -0.169662, -0.230760, -0.131679, -0.014241, -0.220878, 0.250168, 0.148100, 0.170827, 0.151565, 0.206853, 0.074238, -0.103766, 0.183367, 0.162881, -0.084143, 0.030862, -0.359462, -0.117845, -0.009809, 0.050584, 0.049223, 0.463669, 0.003273, 0.320367, -0.074719, 0.048863, -0.217172, -0.023562, -0.083520, },
{-0.030884, 0.032747, -0.155469, 0.317621, -0.126937, -0.251219, 0.113524, -0.138324, 0.044949, -0.227164, 0.041774, 0.016490, -0.364049, -0.441975, 0.297042, 0.067727, 0.297848, -0.100183, -0.050336, 0.079284, 0.568882, 0.136769, -0.018029, 0.024937, -0.057717, 0.035863, -0.071406, -0.323376, 0.200595, 0.149175, 0.244585, -0.168841, -0.454211, -0.477879, 0.036496, 0.038030, -0.107181, 0.056623, -0.401771, 0.031917, -0.149426, 0.351096, 0.080190, 0.227772, 0.105975, -0.342362, -0.223069, 0.162110, 0.135705, -0.176284, -0.259520, 0.523214, 0.108881, -0.126735, 0.335813, 0.433108, -0.100348, 0.043834, -0.125936, 0.103244, -0.243848, 0.120781, -0.009263, -0.170021, },
{0.011639, -0.432840, -0.014484, 0.404286, -0.327333, -0.282407, 0.361641, -0.140598, 0.033209, -0.081269, -0.145519, -0.323598, 0.010964, -0.192624, -0.364346, 0.310807, 0.151245, -0.174513, -0.579253, 0.023031, 0.055248, 0.037496, 0.161765, 0.270202, -0.287249, -0.210800, -0.241455, 0.035969, 0.023891, 0.011845, 0.544140, -0.220487, 0.162231, -0.264316, -0.425480, 0.002979, 0.217721, -0.017456, -0.087936, -0.348284, -0.227260, -0.561913, 0.010299, -0.186833, -0.299864, -0.602966, 0.336451, 0.349345, 0.167937, -0.158686, 0.107819, -0.278309, 0.315919, 0.139216, 0.224960, 0.082980, -0.182793, -0.351147, 0.264111, 0.172431, 0.291193, -0.005777, 0.490674, -0.369351, },
{0.176406, -0.190461, -0.638669, 0.032632, -0.195324, -0.019638, -0.074982, -0.015520, 0.308035, -0.242937, -0.066300, -0.279486, -0.330105, -0.344872, 0.223389, -0.210430, -0.119309, -0.217001, 0.134052, 0.163006, -0.014382, 0.368512, 0.081051, -0.020609, 0.022497, 0.046983, -0.183454, 0.094411, 0.077068, 0.317890, 0.182466, 0.081576, -0.134342, -0.107647, -0.443927, -0.155162, -0.183525, -0.192403, -0.215633, -0.261819, -0.226090, -0.178146, 0.269012, 0.027463, 0.042224, 0.145303, 0.127304, 0.248480, 0.323396, -0.489971, 0.206652, 0.145271, -0.110293, 0.091733, -0.089645, -0.027418, -0.153264, -0.202127, -0.068473, 0.242484, -0.165826, -0.362794, -0.122958, -0.077618, },
{-0.029635, 0.124411, -0.326773, -0.014571, -0.045906, -0.147360, 0.112043, 0.110096, -0.206985, 0.145058, 0.071675, 0.231399, 0.118583, -0.196142, -0.137559, -0.139998, 0.537284, -0.367988, -0.155535, -0.010377, -0.047732, 0.356325, 0.366104, 0.270573, 0.153343, -0.261516, -0.212104, 0.260545, 0.060932, 0.067614, 0.082581, 0.119338, 0.195815, 0.013874, -0.354004, -0.292172, 0.290252, 0.196191, -0.173920, -0.181636, 0.163709, 0.241097, 0.053648, -0.423229, -0.321874, -0.201838, -0.067700, 0.116788, 0.081985, 0.146334, 0.263936, -0.517581, -0.100484, -0.111358, -0.120406, -0.363815, 0.174909, -0.076944, 0.362942, 0.225888, 0.163011, 0.015932, -0.145988, -0.006391, },
{-0.046354, 0.502026, -0.151535, -0.158477, -0.130427, 0.202414, -0.066926, 0.008004, -0.269199, 0.278420, 0.066647, 0.447548, -0.008377, 0.098932, -0.272421, -0.218363, 0.132451, 0.293351, 0.082445, -0.117818, 0.002083, 0.060738, 0.145432, 0.126366, 0.177746, -0.066791, 0.123506, 0.514681, 0.105338, -0.345170, -0.275695, -0.038738, 0.212520, 0.028916, 0.234194, -0.010349, 0.258479, -0.241585, -0.218371, 0.010394, -0.347072, 0.328585, -0.247067, -0.304948, -0.606575, 0.072850, 0.068986, 0.108397, 0.044482, 0.159831, -0.409911, -0.149100, 0.017625, -0.149805, -0.278729, -0.268000, 0.448359, 0.337656, 0.059150, -0.413381, -0.040420, 0.292820, -0.059915, 0.451235, },
{0.120168, 0.107567, -0.038215, -0.166248, 0.239284, -0.084226, -0.175427, 0.247161, -0.190394, -0.090014, 0.183161, 0.227464, 0.290135, -0.521941, 0.123280, 0.155436, 0.009070, 0.269957, 0.111475, -0.059264, -0.153635, 0.150980, 0.313267, 0.115904, -0.261281, -0.187009, 0.048408, -0.087901, -0.237404, -0.281017, -0.184563, 0.158386, -0.163155, 0.081983, 0.192290, -0.072012, 0.001119, -0.198882, 0.174323, -0.141763, -0.019109, 0.359438, 0.071809, 0.112319, 0.104012, 0.148688, 0.099191, -0.180893, -0.056665, 0.210140, -0.042529, -0.200289, -0.032396, 0.019212, 0.045933, 0.007717, 0.113935, -0.056797, 0.294336, 0.217952, 0.116887, 0.000073, 0.159590, 0.075870, },
{-0.146544, 0.203662, 0.067230, 0.016544, 0.492564, 0.432647, 0.468385, -0.115893, 0.137992, -0.207137, -0.013421, -0.518400, -0.122352, 0.402540, -0.002027, 0.009549, -0.102933, 0.238967, 0.035680, -0.024156, 0.114165, 0.065146, -0.058397, -0.296979, 0.083885, -0.017915, 0.114961, -0.009725, 0.217177, -0.349006, -0.172152, -0.273429, 0.407148, -0.027000, -0.176800, 0.109361, -0.295657, 0.229161, 0.270781, 0.090846, -0.033355, -0.160028, 0.133438, -0.738385, -0.104160, -0.204605, 0.256130, -0.427383, 0.078934, 0.026485, -0.044444, -0.013936, -0.109312, 0.038306, -0.150489, -0.292159, -0.421841, -0.322023, -0.049933, 0.072572, -0.044548, -0.394848, -0.075614, -0.156318, },
{-0.243722, 0.157224, 0.077666, 0.193923, 0.201373, 0.356274, -0.101939, -0.094155, 0.034433, -0.411401, 0.249783, -0.197178, -0.103495, -0.118233, 0.181660, -0.536612, 0.023704, 0.195139, -0.404943, 0.083312, 0.596663, -0.276687, -0.355427, -0.163978, -0.166174, 0.194374, -0.064308, -0.324428, -0.104741, 0.033740, 0.012202, -0.020914, 0.021242, -0.093043, 0.229476, -0.443850, -0.003125, 0.384645, -0.433705, 0.121254, 0.089095, 0.015136, -0.008712, -0.006327, 0.237332, -0.067820, -0.065285, 0.268240, 0.009561, -0.076653, -0.149404, 0.474773, 0.155476, 0.066795, 0.328849, 0.185629, -0.640530, 0.128251, -0.276837, -0.260129, 0.156833, 0.249776, 0.095695, 0.027214, },
{0.296060, -0.088977, 0.042262, 0.085090, -0.053662, 0.183755, 0.197746, -0.581869, 0.426746, -0.136552, -0.132341, -0.037528, 0.040328, 0.283138, -0.016865, -0.153420, -0.206432, 0.049639, -0.332746, -0.040051, 0.054958, 0.011908, -0.214095, -0.261069, 0.040534, 0.024593, -0.364180, -0.172660, 0.098015, 0.248680, 0.354487, 0.324515, 0.119134, 0.149184, 0.036348, 0.283923, 0.044642, 0.152424, 0.057414, 0.042464, -0.111163, -0.669979, 0.362453, -0.157527, 0.014387, 0.103830, -0.059341, -0.018068, 0.249592, 0.087571, 0.097860, -0.039710, -0.164073, -0.173038, -0.173882, -0.123077, -0.350007, -0.343118, -0.393058, -0.155822, 0.087028, -0.064592, -0.041152, -0.012955, },
{-0.046692, 0.087764, 0.037565, -0.162637, -0.046472, 0.048952, 0.236970, 0.016790, 0.011188, 0.536297, -0.472632, 0.210579, 0.260098, 0.094111, 0.007045, 0.126272, 0.029993, 0.187332, -0.212399, -0.197813, -0.158548, 0.205694, 0.046754, 0.057208, 0.118994, -0.525475, -0.060473, 0.408174, 0.447633, 0.117861, -0.044883, 0.189577, 0.164613, -0.055526, -0.194833, -0.212198, 0.114093, -0.196685, -0.328944, -0.084921, -0.270026, 0.189626, -0.206829, -0.072665, -0.455418, 0.106054, -0.110950, 0.068508, 0.054235, -0.097031, 0.133974, -0.395461, -0.351694, -0.013482, -0.054742, -0.389240, 0.204677, -0.011343, 0.239970, 0.009989, -0.057726, -0.018541, -0.173038, 0.434646, },
{-0.001789, -0.192132, 0.395231, 0.216698, -0.043750, 0.220205, -0.092001, -0.118521, -0.211302, 0.183436, 0.223205, 0.259490, 0.058235, -0.090692, 0.251233, 0.035066, -0.185955, 0.194172, -0.032915, 0.278263, -0.117036, -0.216215, 0.217615, 0.250057, -0.172993, -0.142336, -0.242533, 0.081552, -0.280774, -0.297792, 0.022528, 0.024823, -0.110024, 0.106215, 0.275289, -0.009455, 0.247115, 0.010712, 0.120544, -0.244381, 0.129450, 0.428618, 0.337169, -0.025469, 0.062391, 0.298557, 0.208102, -0.386427, -0.103942, 0.182574, -0.267687, -0.154385, -0.013680, -0.304833, -0.074713, -0.065105, 0.214243, 0.142971, 0.313607, -0.034505, 0.203182, 0.030618, 0.041048, 0.122107, },
{0.010143, -0.263375, -0.027925, -0.197783, -0.261445, -0.335860, -0.286575, 0.287559, 0.098193, -0.037683, 0.156866, 0.382643, 0.013467, -0.426252, -0.049914, -0.267635, 0.241120, -0.454497, 0.081315, -0.100255, -0.087544, 0.114730, 0.305041, 0.274875, -0.057191, 0.298183, -0.211169, -0.070667, 0.153932, 0.476170, 0.129824, -0.088746, 0.004759, 0.179349, -0.203483, -0.494651, 0.073132, 0.070029, -0.207810, -0.092601, -0.094478, 0.096465, -0.271096, 0.229949, -0.136893, 0.074605, 0.077418, 0.338055, 0.021646, 0.204502, -0.011283, -0.243375, -0.052663, 0.114678, -0.220390, -0.028434, 0.190792, 0.319800, 0.275270, -0.100280, -0.111934, 0.103740, 0.111477, 0.135035, },
{-0.153023, 0.060465, 0.047297, 0.041114, 0.209748, -0.287531, 0.138351, -0.196482, 0.146660, 0.378310, -0.112908, -0.092830, 0.298999, 0.309958, -0.344730, -0.063056, 0.041411, 0.077784, -0.101053, -0.076226, 0.424807, -0.065244, -0.046523, 0.264649, -0.045053, -0.027292, -0.438531, 0.026616, -0.026267, 0.105311, 0.011143, 0.051190, 0.230062, 0.115717, 0.161006, -0.247775, -0.312008, 0.406795, -0.235999, 0.118189, -0.033446, -0.043792, -0.007021, 0.010739, 0.116483, -0.060852, -0.097245, 0.117071, 0.209644, -0.203916, -0.176750, 0.092241, -0.006758, -0.040180, 0.063075, -0.088800, 0.004605, 0.120591, -0.319122, -0.170842, 0.270639, -0.074368, -0.172286, -0.049293, },
{0.335810, 0.167138, 0.130206, -0.258299, -0.114389, -0.386515, -0.040651, -0.062941, 0.490567, 0.203442, -0.004053, -0.399128, -0.114469, 0.307235, -0.373739, -0.318451, 0.067128, 0.043186, -0.124347, 0.093028, -0.185820, 0.439650, 0.132408, 0.083518, 0.267850, -0.174233, -0.497642, -0.038881, 0.399912, -0.042621, -0.115231, 0.282524, 0.131090, 0.008253, -0.216674, -0.031973, -0.111821, 0.247096, 0.015838, -0.064708, 0.105835, -0.106865, 0.135603, -0.479124, 0.003998, -0.046604, 0.102372, -0.341373, -0.142654, -0.328373, 0.048653, -0.249615, -0.178403, 0.111828, -0.260939, 0.000666, 0.068705, -0.115052, -0.009721, -0.066630, 0.243127, -0.331373, -0.104846, 0.149279, },
{0.202619, 0.217980, -0.150890, 0.422871, 0.256507, 0.130617, 0.188288, -0.060822, -0.162615, 0.117056, 0.094967, 0.201875, -0.070337, 0.039034, 0.103647, -0.095356, 0.112183, 0.286351, 0.130827, -0.230853, 0.198376, 0.013963, -0.027344, -0.055584, -0.168560, -0.227637, -0.032574, -0.382036, -0.137040, 0.167851, -0.244324, 0.354169, 0.274006, -0.068527, 0.015818, -0.422890, 0.125395, -0.158309, -0.238798, -0.006805, 0.255472, 0.195989, -0.016432, -0.028731, -0.349810, 0.045297, -0.004503, -0.253187, -0.348035, -0.111919, 0.431917, -0.044003, -0.388834, 0.260042, 0.103523, 0.196272, 0.205427, -0.057285, -0.270843, -0.239780, 0.068776, 0.145795, 0.027051, 0.079106, },
{-0.039540, -0.099186, 0.221211, 0.006149, -0.051820, 0.417703, -0.222279, -0.251916, -0.092446, -0.126170, -0.240043, 0.146173, 0.230297, -0.102604, -0.181723, 0.256714, -0.196251, 0.347388, -0.223576, 0.025094, 0.243271, -0.063140, -0.214782, 0.111939, -0.303327, 0.196153, -0.003160, -0.020236, 0.229401, 0.123682, 0.243378, -0.248285, 0.102916, -0.049671, 0.124439, 0.127749, -0.011846, -0.084584, -0.370361, 0.425051, -0.152792, 0.111092, 0.294240, -0.242845, 0.257074, -0.477186, -0.041326, 0.082152, -0.423340, 0.212965, -0.148567, 0.282736, 0.200930, -0.313973, 0.186844, -0.182459, -0.192611, 0.187973, -0.153884, -0.089056, -0.176521, 0.128975, 0.224517, -0.341058, },
{-0.047662, 0.478671, -0.437868, -0.456691, 0.422358, 0.148704, -0.014415, 0.367084, 0.338619, -0.278092, -0.024376, -0.171552, -0.235028, 0.234261, -0.155713, -0.419053, 0.303267, -0.296986, 0.090070, 0.015720, 0.079982, 0.005558, -0.108443, -0.245964, -0.067779, 0.116350, 0.096561, -0.178220, 0.395641, -0.081612, -0.372194, -0.033200, -0.139193, -0.018737, 0.560715, -0.155955, 0.117166, 0.118659, 0.061726, 0.177263, 0.242998, 0.178718, -0.088033, 0.342234, 0.056310, 0.515676, -0.409369, 0.168539, -0.268153, 0.003946, -0.008115, 0.428107, -0.432020, -0.178114, -0.382186, 0.053956, -0.045057, 0.668583, 0.316608, 0.102037, -0.098567, -0.152715, -0.354869, 0.191429, },
{-0.261663, 0.185268, -0.214549, -0.018814, 0.204413, -0.162036, 0.099302, 0.108625, -0.075307, -0.159381, 0.320373, 0.177473, -0.160430, -0.089021, 0.124152, -0.036613, -0.142656, -0.176783, 0.245023, -0.138919, 0.133796, 0.183030, -0.321901, 0.034668, 0.150722, 0.036774, 0.120448, 0.158551, 0.037857, 0.343391, -0.249758, -0.283553, 0.123308, -0.245612, -0.165328, -0.125572, 0.302327, 0.076315, 0.143559, 0.028056, 0.273782, 0.231445, -0.239563, 0.024451, -0.009067, -0.003682, -0.086980, -0.036056, -0.030894, 0.101827, 0.227508, 0.261570, -0.480769, 0.136023, 0.159622, -0.174217, 0.399006, -0.226664, 0.132619, -0.189228, 0.255851, 0.029080, -0.021732, -0.079724, },
{0.249641, -0.205544, 0.283898, -0.227201, 0.146874, -0.011456, 0.052019, -0.061503, 0.003906, -0.283864, 0.449469, 0.068649, 0.003849, -0.248896, -0.060830, 0.103068, -0.042266, -0.174748, 0.145451, -0.022072, -0.038618, -0.234431, 0.050057, 0.064024, 0.063105, -0.181880, -0.052254, -0.454400, -0.712976, 0.063534, -0.078366, 0.353151, 0.021512, 0.105131, -0.201252, -0.000313, 0.007839, 0.116185, 0.328332, 0.118650, 0.436088, -0.043479, -0.146584, -0.151164, 0.068613, 0.179557, -0.072180, -0.042759, -0.335930, 0.471933, 0.493965, 0.230607, -0.039620, -0.057308, -0.023873, 0.297758, 0.086636, -0.174210, 0.123848, 0.053738, 0.093264, 0.239931, 0.273619, 0.024933, },
{0.084134, -0.217952, -0.066120, -0.349755, 0.117757, -0.398367, -0.088613, 0.033937, -0.153322, 0.386308, 0.046747, 0.408249, 0.341543, 0.021368, -0.048148, 0.326793, 0.178105, 0.074952, 0.064621, 0.087848, -0.192934, -0.007687, 0.372799, -0.215104, -0.176736, -0.437273, -0.013861, -0.057218, -0.040310, 0.423253, 0.186595, 0.236061, -0.086233, 0.128649, 0.047871, 0.224322, 0.006313, -0.328523, 0.173971, 0.030354, 0.119449, 0.059947, 0.014604, 0.308721, -0.033326, 0.331692, 0.055554, -0.134671, -0.106665, 0.407693, 0.000425, -0.256104, -0.231218, -0.042298, -0.201094, 0.018904, 0.266149, 0.501238, 0.064125, -0.008914, -0.051424, -0.077279, -0.262178, -0.112711, },
{0.046050, -0.053534, 0.144418, 0.182690, -0.058990, -0.155463, 0.282611, 0.113558, -0.056298, -0.241128, -0.073059, 0.037411, -0.152926, -0.435758, -0.155288, 0.078312, -0.046275, 0.053653, -0.033691, -0.151213, -0.490885, 0.135471, 0.297737, -0.023293, -0.014975, 0.054672, 0.113508, 0.011134, -0.438394, -0.587827, 0.270784, 0.026035, 0.091429, -0.026624, -0.400152, -0.059225, -0.106125, 0.190925, 0.345010, -0.628839, 0.042166, 0.075698, 0.070073, -0.231935, -0.034071, 0.020956, -0.106663, -0.019525, 0.017073, -0.127116, 0.121800, 0.168667, 0.058969, -0.061661, 0.139451, -0.182974, -0.137460, -0.124445, -0.074652, 0.426285, 0.271320, 0.108659, 0.129017, 0.046196, },
{-0.130125, 0.246450, -0.117732, -0.193662, -0.237316, 0.466967, 0.024313, -0.084853, -0.060325, -0.114963, -0.022476, 0.220873, -0.176712, 0.010408, 0.385206, -0.346961, 0.139804, 0.150042, -0.062981, -0.040468, 0.222807, -0.070247, -0.033142, -0.027839, 0.034883, 0.195884, -0.170478, -0.273106, -0.180831, -0.131875, 0.208696, 0.491588, 0.117172, 0.052256, 0.093875, -0.523271, 0.275580, 0.309909, -0.326160, 0.420556, 0.484868, 0.149598, 0.217420, 0.191099, 0.013529, -0.053474, 0.151661, 0.291527, 0.132667, -0.253213, 0.047977, 0.367018, -0.053388, -0.129702, -0.016690, -0.137212, -0.251473, 0.255982, -0.518227, 0.153074, -0.142806, -0.053691, 0.207308, 0.217958, },
{0.002160, 0.308293, -0.068673, 0.259261, -0.112535, -0.154155, 0.103170, -0.199701, -0.112977, -0.665343, 0.431508, 0.033929, -0.254592, -0.101472, 0.218140, -0.281024, 0.147824, -0.128251, 0.098871, 0.002645, 0.096499, -0.197535, 0.150141, 0.040513, -0.032351, -0.039470, -0.024420, -0.192846, -0.223721, 0.297179, 0.460263, -0.235065, 0.029870, 0.175433, -0.402249, -0.023428, 0.209563, 0.281724, 0.326311, -0.027729, -0.085189, -0.395323, 0.001222, -0.225893, -0.320331, -0.179131, -0.060658, -0.009300, 0.201223, -0.234509, 0.138835, 0.001363, 0.205746, 0.048661, 0.049646, -0.096822, -0.087310, -0.281665, -0.204105, -0.000523, 0.208639, 0.012422, 0.243458, -0.243780, },
{-0.004503, -0.028384, -0.083442, -0.386642, 0.198386, -0.136231, -0.203641, 0.079780, 0.197013, -0.250563, 0.277143, -0.098851, -0.005120, 0.006395, 0.102488, -0.022397, -0.238537, -0.246802, 0.164862, -0.235754, 0.254464, 0.089300, -0.042687, 0.027163, 0.082562, 0.332445, -0.152216, -0.031823, 0.364611, 0.023530, -0.094867, -0.161751, -0.158171, -0.111123, -0.076704, 0.423322, 0.459470, 0.140200, 0.158209, -0.001989, 0.157997, -0.227848, -0.185526, -0.035758, 0.173734, 0.158939, -0.079708, 0.276181, -0.066080, 0.217357, -0.444869, 0.142988, 0.100014, -0.201453, -0.178767, 0.156646, -0.050949, 0.111928, 0.368391, -0.563402, -0.316908, -0.027406, 0.043457, 0.111369, },
{-0.086112, 0.117475, 0.149282, -0.156000, 0.461266, 0.142596, -0.173597, 0.229507, -0.218016, -0.122204, 0.407287, 0.120038, -0.170418, -0.009664, 0.040328, -0.116782, -0.156349, -0.005201, 0.263995, -0.134793, 0.107726, -0.349844, -0.274862, 0.205367, -0.301219, 0.275712, 0.019317, -0.118820, -0.328828, -0.350324, -0.316226, 0.352361, 0.222828, 0.164233, 0.122117, -0.015645, -0.032963, -0.244145, -0.029726, -0.105304, 0.210531, 0.222312, 0.080351, 0.286951, -0.021521, 0.362427, -0.180691, 0.093998, -0.093380, -0.033688, -0.316126, 0.288838, -0.190975, 0.101669, 0.204747, 0.003102, 0.386436, 0.008907, 0.610162, -0.208149, 0.185542, 0.253786, 0.085179, 0.521185, },
{0.179022, -0.322738, -0.003877, 0.176353, -0.101106, -0.132050, 0.000904, -0.025401, -0.191511, 0.122002, 0.080185, 0.286545, 0.068459, -0.228638, 0.004469, 0.028573, 0.374206, 0.434136, 0.046329, -0.205388, 0.009723, -0.174721, 0.105282, 0.140190, -0.161895, -0.084921, -0.636408, -0.082909, -0.095206, 0.140396, 0.098528, 0.148761, -0.153623, 0.147205, -0.154835, -0.142448, 0.088142, -0.503699, -0.485515, 0.043272, 0.352457, 0.130441, -0.279673, 0.170979, -0.256807, 0.098580, -0.215554, 0.142379, -0.050800, 0.265937, 0.039098, 0.044276, 0.244160, -0.209854, 0.020895, 0.130848, -0.033689, -0.131312, 0.052187, -0.225782, 0.045818, 0.509842, 0.143350, 0.024186, },
{-0.103208, -0.019189, 0.345260, 0.299834, -0.070161, -0.050241, 0.185128, -0.169879, 0.200294, -0.512380, 0.367540, -0.168528, -0.249717, -0.055711, 0.109449, -0.255196, 0.012045, 0.194239, -0.219176, -0.183304, 0.141628, -0.471939, -0.070102, -0.131465, -0.033024, -0.068941, -0.192946, -0.224633, 0.264352, 0.066147, 0.147021, -0.332693, -0.169954, -0.251761, -0.223627, 0.046844, 0.303327, 0.134889, 0.052320, -0.029292, 0.008778, -0.248045, -0.251381, 0.074456, -0.028060, 0.057510, 0.021711, 0.031260, -0.038048, 0.222306, -0.492031, 0.428367, 0.128886, 0.320241, -0.032842, 0.275486, -0.074516, -0.044380, -0.310830, -0.166310, -0.045704, -0.111691, 0.284062, 0.267004, },
{-0.132892, -0.153636, 0.292859, -0.252142, -0.043566, -0.158430, -0.021589, 0.165242, 0.017654, 0.100447, -0.143714, 0.045058, -0.129118, 0.156371, 0.125163, 0.550769, -0.115190, -0.082422, 0.027103, -0.145850, -0.086834, 0.026596, -0.212152, -0.181627, 0.076416, 0.088415, 0.251301, 0.546906, 0.052144, -0.289011, -0.334552, 0.281278, 0.174620, 0.036843, 0.472787, 0.114992, -0.096584, -0.396580, 0.145902, 0.255556, -0.021492, 0.220826, -0.119348, 0.050083, 0.126583, -0.109469, 0.025046, -0.365625, 0.151444, 0.436753, 0.126158, -0.200082, -0.103437, 0.224374, 0.042565, -0.111122, 0.492268, -0.123898, 0.011881, 0.025254, -0.145295, -0.333666, -0.078685, -0.013907, },
{0.432227, 0.322841, -0.171267, -0.340850, 0.353688, 0.025444, 0.072042, -0.201280, 0.045274, 0.468753, -0.100202, -0.000192, 0.004462, 0.257339, -0.044485, 0.022139, -0.285265, 0.115552, 0.309400, 0.137751, 0.187977, 0.027570, 0.010294, -0.222163, 0.299182, 0.267284, 0.076719, -0.008863, 0.230589, -0.070062, -0.325021, 0.239303, 0.032252, 0.307142, 0.220562, 0.394103, -0.369746, -0.284283, 0.327950, 0.417711, -0.290563, 0.192140, 0.122465, 0.495300, 0.115264, 0.405517, 0.055626, 0.035674, -0.316308, 0.010815, 0.030515, -0.115309, -0.448134, 0.076152, -0.150868, 0.037400, 0.060429, 0.632827, -0.038109, -0.000016, -0.021633, 0.012269, -0.409247, 0.221990, },
{-0.120478, 0.341786, -0.040655, -0.091492, -0.210703, 0.371346, 0.195698, -0.115414, -0.310624, -0.034179, 0.036685, 0.440559, 0.155858, 0.352388, 0.013048, -0.355455, 0.103598, 0.272806, 0.094051, 0.266888, 0.435375, 0.250772, -0.035080, -0.190238, 0.335564, -0.032414, 0.064364, -0.107239, 0.149473, 0.056579, 0.138418, 0.009955, 0.144505, 0.032147, 0.266372, -0.277427, -0.017359, 0.473098, -0.344668, 0.285133, -0.176620, 0.049189, -0.264844, -0.088221, -0.045882, -0.267148, 0.135474, 0.048229, 0.218817, 0.041366, -0.053560, 0.192386, 0.191070, -0.283288, -0.017827, 0.023732, -0.061685, -0.133353, -0.028719, -0.151567, -0.174817, -0.118166, 0.199397, 0.202649, },
{0.201240, 0.037517, -0.076287, -0.349100, -0.031931, -0.132542, -0.222629, 0.271121, 0.362877, -0.044770, 0.145415, -0.104683, -0.296312, -0.006849, 0.071792, -0.522389, -0.012415, -0.421708, 0.297508, -0.149614, 0.123637, 0.039556, -0.109118, -0.131468, 0.016670, 0.401405, -0.153738, -0.527922, 0.065211, 0.002670, 0.115142, 0.066698, -0.023732, -0.243023, -0.012722, -0.063163, -0.061934, 0.014990, -0.004550, -0.216597, 0.045065, -0.277978, 0.402950, 0.427953, 0.279948, -0.258087, -0.035912, 0.460209, 0.184558, -0.104987, 0.073413, 0.101055, 0.163045, -0.169230, -0.179903, 0.355628, 0.018859, -0.125593, -0.138523, -0.114382, -0.347875, 0.381438, 0.157943, 0.237406, },
{0.181791, 0.429114, -0.256285, -0.059410, -0.088548, 0.135273, -0.063477, -0.042515, 0.306478, 0.011268, -0.130462, 0.060039, -0.089747, 0.461309, -0.156657, -0.444989, 0.028530, 0.011832, 0.205586, -0.052270, 0.274482, 0.019167, -0.198812, 0.115117, 0.060924, 0.146774, -0.138923, -0.279204, 0.182584, -0.006158, -0.211453, 0.060643, 0.159685, 0.109862, 0.420297, -0.011690, -0.005365, 0.035727, 0.135294, 0.076799, -0.185561, 0.009019, 0.062453, 0.440402, -0.146281, 0.384860, 0.141615, 0.179617, -0.021428, -0.196752, 0.065173, 0.363161, -0.143102, 0.075835, 0.088488, 0.203782, -0.036753, 0.432435, -0.207871, -0.116445, 0.151023, 0.110315, 0.051812, 0.165926, },
{-0.171278, 0.112823, -0.035925, -0.069343, 0.332783, 0.186641, 0.148787, 0.147177, -0.129335, -0.048334, 0.115443, 0.307181, -0.141533, -0.428060, 0.389277, -0.089610, -0.115529, -0.073600, 0.129063, -0.098169, 0.061724, -0.242307, -0.081495, -0.057954, 0.014664, 0.123427, 0.208646, 0.058485, -0.225902, 0.117117, -0.375673, 0.217084, -0.138825, 0.259035, 0.094841, -0.175484, -0.081165, 0.319063, 0.247375, -0.030094, 0.490633, 0.288870, 0.013514, 0.005461, 0.039001, 0.303063, -0.221756, -0.021121, -0.366157, 0.246377, 0.191305, 0.099687, -0.412749, 0.146814, -0.173187, 0.071337, 0.457508, 0.009310, 0.647250, -0.320081, 0.037076, -0.094227, -0.323289, 0.333817, },
{-0.015462, 0.099994, 0.147817, 0.396018, 0.279769, -0.043173, 0.184060, -0.399442, 0.192252, -0.285777, 0.253652, -0.307476, -0.032177, 0.137431, 0.306954, 0.158379, 0.069083, 0.269003, -0.234163, 0.067749, 0.270169, -0.407342, 0.053722, -0.228712, -0.100859, 0.008022, 0.216394, -0.059178, -0.002842, 0.057197, -0.249151, -0.398003, -0.104160, 0.059142, 0.221349, 0.069394, 0.293403, 0.044649, 0.068108, -0.339078, -0.167037, -0.109014, 0.027671, 0.058006, 0.285706, 0.030369, -0.067557, -0.118728, -0.217079, 0.155260, -0.016503, 0.223697, -0.090239, 0.055823, 0.251733, 0.083933, -0.037293, 0.189565, -0.309789, -0.258912, -0.112552, -0.412605, 0.027898, -0.078075, },
{-0.085507, -0.213870, -0.016085, 0.229961, -0.170156, -0.202684, -0.003321, -0.037985, -0.184687, -0.037399, -0.126024, 0.291407, -0.117200, -0.060229, -0.053061, -0.157437, 0.258641, 0.050764, 0.061091, -0.146494, -0.060272, -0.258684, -0.067371, 0.209349, -0.176447, -0.102779, -0.133786, 0.052921, 0.162632, 0.064421, 0.333232, 0.233731, -0.109665, -0.048123, 0.042482, -0.113360, -0.144706, -0.219283, -0.259912, 0.052521, 0.034074, 0.182415, 0.079626, 0.139262, -0.138724, -0.060068, -0.014824, -0.068730, 0.291935, -0.170871, 0.004121, 0.012070, 0.248369, -0.183781, -0.003887, 0.199683, -0.231663, 0.067076, -0.518769, 0.317623, 0.224299, 0.163625, 0.058611, -0.130103, },
{-0.096092, 0.255766, -0.482562, -0.142851, -0.009442, -0.038529, 0.026285, -0.012326, 0.064103, 0.345074, -0.288752, 0.041139, -0.139654, 0.407204, -0.039756, -0.161833, 0.010318, 0.098622, 0.159101, -0.119913, -0.206918, 0.230440, -0.058642, 0.270100, -0.097761, -0.188119, 0.032826, 0.166311, 0.271161, 0.020970, 0.069055, 0.117127, -0.001613, -0.060891, 0.190467, -0.147210, -0.191515, -0.177179, 0.017069, -0.113741, -0.343704, 0.344594, -0.015316, 0.395699, -0.394915, 0.081438, 0.148623, -0.016122, -0.044866, -0.027259, 0.114438, 0.055289, 0.181714, 0.293593, 0.072853, 0.368764, 0.011311, -0.019596, -0.161232, -0.158170, -0.069233, 0.359999, -0.354399, 0.232877, },
{0.024518, -0.161156, 0.352877, -0.185469, 0.083307, 0.061216, -0.201226, 0.151917, 0.019430, -0.091446, -0.283616, -0.013074, -0.074230, 0.070608, -0.010930, -0.113572, 0.187326, 0.047804, 0.206888, 0.015926, 0.383455, 0.279511, -0.186629, -0.115871, -0.195953, -0.065874, 0.048111, 0.064805, -0.092359, 0.076840, -0.188090, 0.169264, -0.142603, -0.220279, 0.496077, -0.303702, 0.029079, 0.179881, -0.365921, 0.442482, 0.192659, 0.333413, -0.204455, 0.405647, -0.139076, -0.118301, -0.301560, 0.159787, -0.007862, 0.081228, -0.256846, 0.079911, 0.179594, -0.033568, 0.012513, -0.001323, 0.160521, 0.012694, -0.008489, -0.047422, 0.173996, 0.003932, 0.188121, 0.127464, },
{-0.275228, -0.133880, 0.045134, 0.041273, 0.319221, 0.533807, -0.041624, 0.132937, -0.500919, 0.084769, 0.014938, 0.221632, 0.122346, -0.173247, -0.140922, 0.078417, 0.062705, 0.185620, 0.364608, -0.152074, 0.101787, -0.290590, -0.154705, 0.041708, 0.059585, 0.163330, 0.085809, 0.051576, -0.266311, -0.726540, -0.147828, -0.020700, -0.082647, -0.020839, 0.494074, 0.301728, 0.108309, 0.139136, -0.218134, 0.061743, -0.066023, 0.442076, 0.207433, 0.048963, 0.080359, 0.075867, 0.022045, 0.204923, -0.184663, 0.102323, -0.577983, -0.205641, -0.349728, -0.365097, 0.076696, -0.146130, 0.250086, 0.239002, 0.259558, -0.340479, 0.259987, 0.180101, -0.000878, 0.029041, },
{-0.204306, -0.098993, -0.012852, -0.118451, 0.185233, -0.098232, -0.066546, -0.062994, 0.071954, -0.319588, -0.082957, -0.391074, -0.216696, 0.128394, -0.187979, 0.117865, -0.250672, -0.193645, 0.172506, 0.122405, -0.149278, 0.362298, -0.041619, -0.403239, 0.109154, 0.002377, 0.251799, 0.194826, 0.238097, 0.319322, 0.085254, -0.514220, -0.123531, 0.073158, 0.007491, 0.140580, 0.116303, 0.122141, 0.011707, -0.369832, 0.081841, -0.152228, -0.295186, -0.373232, -0.038140, 0.014270, 0.180654, -0.074588, -0.170634, -0.183455, -0.278272, 0.050015, -0.029130, 0.007838, -0.199003, -0.217015, 0.139758, 0.124076, 0.096230, -0.229405, -0.316942, -0.344672, -0.112329, -0.271768, },
{-0.057015, -0.266717, 0.073045, 0.224154, -0.081089, -0.483695, -0.145317, 0.114304, 0.095825, -0.158681, -0.137750, 0.129792, -0.215143, -0.413898, 0.082873, 0.409080, -0.121345, -0.227216, -0.104584, -0.173988, -0.176890, -0.186550, -0.320607, -0.044110, 0.319147, 0.093085, 0.129907, 0.078511, -0.129707, 0.295100, -0.180433, -0.004022, -0.519107, 0.049830, -0.083332, -0.025357, 0.004632, 0.020365, 0.052394, -0.197300, 0.051983, -0.159153, 0.053696, 0.157596, 0.263201, -0.146789, 0.130096, -0.039464, 0.079250, 0.249904, 0.196196, -0.272551, 0.048743, -0.021448, -0.134836, -0.089088, 0.273857, -0.297747, 0.118099, 0.012672, 0.007774, -0.009606, 0.051759, -0.132881, },
{-0.150697, 0.145016, 0.183251, -0.150247, -0.392594, 0.064552, 0.085142, -0.321375, -0.057711, -0.516317, 0.080950, 0.112811, -0.022958, -0.188679, 0.368194, -0.225874, -0.023925, -0.070886, 0.094990, -0.529211, 0.667320, 0.217631, -0.054276, -0.222459, 0.163770, -0.059109, 0.152242, 0.283512, 0.221380, 0.524621, 0.021465, -0.039988, -0.306975, -0.006014, 0.006210, -0.477755, -0.037687, 0.428066, -0.497078, 0.366380, 0.073285, -0.146695, -0.256630, -0.097010, 0.266698, -0.321525, -0.091219, 0.039046, 0.056015, 0.009174, 0.275460, 0.028253, 0.262992, -0.118263, -0.012732, 0.031659, -0.422908, -0.248313, -0.106057, -0.157189, -0.243139, -0.155290, 0.178793, -0.107339, },
{0.034908, -0.387437, 0.061512, -0.206439, 0.307065, -0.115730, -0.025797, 0.124689, -0.216515, 0.184571, 0.111225, -0.214833, -0.275139, -0.065812, -0.051857, 0.366058, -0.082085, -0.494741, -0.127976, -0.033394, -0.410944, -0.086551, -0.217265, -0.116878, -0.043505, 0.009298, -0.000912, 0.057702, -0.165872, 0.154414, 0.020738, -0.006932, -0.182575, -0.071961, -0.284457, 0.504475, 0.011732, -0.557308, 0.353194, -0.434640, -0.185706, 0.314659, 0.119236, -0.001756, 0.212881, -0.194826, -0.027767, -0.284613, 0.009958, 0.241559, 0.154665, -0.396528, -0.006540, -0.203227, -0.321221, 0.119648, 0.407245, -0.144205, 0.318913, 0.040269, -0.283670, -0.144071, 0.026429, 0.395921, },
{0.065180, 0.234300, 0.077787, 0.239425, -0.256476, 0.643794, 0.099526, -0.069392, 0.167681, 0.141361, -0.073973, 0.061779, -0.010539, 0.259774, -0.240815, -0.214796, 0.082845, 0.271401, -0.252317, 0.007754, 0.091118, -0.108093, 0.160837, 0.041381, -0.173416, -0.195666, 0.022704, 0.029856, 0.143270, -0.138743, 0.047971, 0.341507, 0.077501, -0.071495, 0.710979, -0.158546, 0.033417, 0.064895, -0.677363, 0.575356, 0.065357, 0.220164, 0.255783, -0.183712, -0.105873, -0.111921, -0.263276, 0.083737, -0.220473, -0.207838, 0.025113, 0.203124, -0.163561, -0.073045, -0.001386, 0.031136, -0.231745, -0.065993, -0.279601, 0.222794, 0.071637, 0.200665, 0.055385, 0.255911, },
{-0.087951, -0.331608, 0.167838, -0.211554, 0.027694, 0.317619, -0.293515, 0.121435, -0.172313, -0.105006, -0.241533, -0.031599, -0.057463, -0.276937, 0.125760, 0.323568, -0.029561, -0.360677, 0.253637, 0.141728, -0.023466, 0.248461, 0.123931, -0.441264, -0.044862, -0.226845, 0.081129, 0.451530, 0.045052, 0.274947, -0.147825, 0.281522, -0.467801, -0.060863, 0.287079, -0.197738, -0.127220, -0.168507, -0.145680, 0.426454, 0.057336, 0.073680, -0.228368, 0.084112, 0.329802, -0.206572, -0.327943, 0.109944, -0.228699, 0.468429, -0.088345, 0.030548, -0.141873, 0.224641, 0.158536, -0.193953, -0.017183, -0.190687, 0.142685, -0.041472, 0.019423, -0.031528, 0.088444, 0.179691, },
{0.279840, 0.358023, 0.023208, -0.105560, 0.009846, 0.258869, -0.054652, 0.127987, 0.001793, 0.174127, -0.139754, 0.209762, 0.254570, 0.091003, -0.006098, -0.213571, -0.016197, 0.077855, 0.063243, 0.205109, 0.472975, -0.213419, 0.253417, -0.023666, -0.026917, -0.263845, 0.080858, 0.081918, -0.261846, -0.258753, -0.309443, 0.450886, 0.093439, 0.175588, 0.391842, -0.550100, 0.017753, 0.237644, -0.331252, 0.407600, 0.442575, 0.402538, 0.017570, 0.241788, -0.145489, 0.257725, -0.079494, 0.079534, -0.231407, 0.188869, 0.210356, -0.139377, -0.532143, 0.051608, 0.009461, 0.059694, 0.221098, 0.108189, 0.015315, -0.152372, -0.122465, 0.009440, 0.192773, 0.438386, },
{0.137997, -0.140751, -0.167708, -0.101952, -0.346484, -0.165873, -0.361051, 0.025348, -0.154852, -0.136582, -0.036937, 0.012610, 0.071992, -0.036216, -0.056571, 0.010411, 0.100137, -0.008975, -0.224659, -0.208689, -0.089425, 0.351353, 0.209924, 0.333037, 0.231639, 0.283599, -0.277888, 0.115831, -0.137733, 0.081328, 0.591289, -0.186293, 0.247464, -0.112650, 0.014358, -0.127160, 0.223844, 0.380389, -0.013284, -0.231963, 0.017428, -0.570222, 0.311942, -0.260863, 0.128486, -0.426382, 0.253735, 0.036633, -0.059965, -0.334946, -0.146301, -0.066926, 0.388797, -0.233464, 0.005089, -0.292170, -0.213732, -0.043413, -0.283297, -0.019249, 0.407824, 0.188910, 0.452579, -0.345517, },
{-0.616620, 0.272948, 0.039089, 0.124877, -0.133295, 0.057462, 0.224237, -0.035012, 0.165147, -0.380995, 0.079018, 0.114505, 0.059315, -0.124792, 0.313184, -0.095663, -0.163971, -0.472881, 0.017749, -0.087850, 0.509650, 0.120513, -0.130618, -0.247487, -0.124550, 0.249940, 0.183607, -0.126482, 0.011648, -0.067041, -0.051837, -0.185595, 0.037283, -0.305123, 0.094053, -0.403812, -0.010503, -0.023287, -0.434050, 0.239885, 0.158309, -0.013213, -0.025281, 0.093782, 0.039466, -0.547296, -0.196931, 0.071245, 0.394363, 0.216622, 0.253498, -0.121046, 0.444532, 0.326922, -0.162370, 0.229342, -0.350597, -0.346729, -0.111958, -0.186833, -0.218549, -0.183248, 0.319413, 0.074563, },
{0.197645, -0.203015, -0.298595, -0.341886, 0.061201, 0.140102, -0.086206, 0.094322, 0.222016, 0.312662, -0.138403, -0.292138, 0.200060, -0.036299, -0.246723, -0.301199, -0.332687, -0.369925, 0.196385, -0.035777, 0.046040, 0.020993, 0.159712, -0.092241, -0.275431, 0.278327, 0.015613, -0.185173, 0.094938, -0.288447, -0.163150, 0.468381, -0.039820, 0.262631, -0.013656, -0.100123, 0.059775, -0.012278, 0.521486, -0.105075, -0.104029, 0.157242, 0.295837, 0.222408, 0.253750, 0.394954, -0.239691, 0.024929, 0.042184, -0.247816, -0.090603, 0.204341, -0.021956, -0.020249, -0.275849, 0.340475, 0.027514, 0.136564, 0.030198, -0.143585, -0.313602, 0.033506, -0.271760, 0.485528, },
{0.119199, -0.213001, 0.336625, 0.120715, -0.010469, -0.163383, 0.145133, 0.374700, -0.084252, 0.071585, -0.282747, -0.003533, -0.110908, 0.212333, 0.233385, 0.132859, -0.327847, -0.030012, -0.271731, -0.189412, -0.211204, -0.306544, 0.030363, 0.221881, 0.017696, -0.163371, -0.135994, 0.053975, -0.075827, -0.136016, 0.222187, 0.053703, 0.092037, -0.435538, -0.285249, 0.286970, 0.066162, -0.279787, -0.289905, -0.066613, -0.394487, 0.020565, -0.013364, 0.193611, -0.048375, -0.140930, 0.109893, 0.081190, 0.226094, -0.012540, 0.114859, 0.242102, 0.281451, 0.125088, 0.397753, 0.362628, -0.326718, -0.255444, -0.311259, 0.119536, -0.176265, 0.087672, 0.184497, 0.454195, },
{-0.287643, 0.091357, -0.203870, 0.298475, 0.196795, 0.183943, -0.213527, 0.108996, 0.107722, 0.088551, 0.003045, -0.153257, -0.142618, -0.059500, 0.097398, -0.231968, -0.318868, 0.088513, 0.015745, 0.003740, 0.172049, -0.313536, -0.050427, -0.159783, -0.024094, 0.214015, 0.391425, 0.129699, 0.265109, -0.411908, -0.423313, -0.431447, 0.345084, -0.214588, 0.132728, -0.060787, 0.160824, -0.152617, 0.004663, -0.317217, -0.243844, 0.481393, -0.024903, 0.025341, -0.141868, 0.407773, -0.106297, 0.474920, -0.206198, -0.202232, -0.041341, 0.094061, -0.187974, 0.019822, 0.005410, 0.290151, 0.019645, -0.106432, 0.496941, -0.205404, -0.322624, -0.222061, -0.325704, 0.573209, },
{-0.265867, 0.237694, -0.048684, -0.141757, 0.321567, -0.155790, -0.211820, 0.319910, -0.106049, 0.065767, 0.350373, 0.146527, -0.099373, -0.271420, 0.220646, 0.125315, -0.039504, -0.417726, 0.245338, -0.336104, 0.057874, -0.060445, -0.186800, -0.168882, -0.114652, 0.145102, 0.101118, 0.122188, 0.011895, 0.413847, 0.065666, -0.191225, -0.230905, 0.063452, 0.122025, 0.085765, 0.322258, -0.059915, 0.085321, -0.045356, 0.217823, 0.392168, -0.389420, 0.130603, -0.193475, 0.564436, -0.227502, -0.212607, -0.126953, 0.058452, -0.080158, 0.130449, -0.000770, -0.085022, -0.208789, -0.168872, 0.161723, -0.045235, 0.302220, -0.358157, 0.020576, 0.096989, -0.314317, 0.029342, },
{-0.286918, -0.296051, 0.588738, -0.072560, 0.262109, -0.355850, 0.140327, 0.105351, -0.122908, 0.172411, -0.174452, -0.300496, -0.035342, -0.146295, 0.053766, 0.447615, -0.405079, 0.145621, -0.277506, -0.300453, -0.116738, -0.157786, -0.256716, -0.100618, -0.127226, 0.146964, -0.135010, 0.024458, -0.096303, -0.115677, 0.121928, -0.021030, -0.169729, -0.262658, -0.115227, 0.063479, -0.071560, 0.179300, 0.310088, 0.049238, -0.061553, -0.153102, -0.059259, -0.231410, 0.477995, -0.030303, -0.003056, -0.080668, 0.244774, 0.257312, -0.011438, 0.185861, 0.085016, 0.099764, 0.414174, -0.088091, 0.255733, -0.352666, -0.092672, 0.288726, 0.151556, -0.079864, -0.099977, -0.447658, },
{0.144805, 0.353409, 0.001623, -0.209877, -0.273210, 0.363221, 0.010927, 0.122474, 0.161990, -0.077266, 0.219995, 0.137757, 0.061707, 0.005845, -0.209511, -0.033131, 0.135934, -0.016123, 0.044074, 0.317761, -0.123693, -0.089754, 0.253616, -0.042176, -0.030528, -0.065341, -0.298744, -0.178285, -0.346240, -0.008439, 0.217000, 0.146426, 0.123577, -0.258738, 0.013877, -0.005577, 0.046427, 0.401400, -0.007580, 0.115401, 0.304430, -0.021048, 0.333078, -0.115719, -0.021942, -0.247818, -0.009560, -0.073666, -0.118952, -0.176344, 0.199327, -0.095918, -0.051378, -0.142422, -0.233260, -0.253431, -0.055229, 0.165918, -0.027874, 0.238058, 0.064212, 0.080207, -0.081924, 0.103493, },
{-0.290538, 0.117123, -0.135467, -0.017292, 0.573832, -0.216390, 0.502531, -0.102087, -0.168673, -0.043070, -0.125071, -0.047907, 0.132423, -0.039176, 0.036034, 0.111062, -0.039028, 0.084289, 0.251180, 0.094959, 0.006962, 0.044011, 0.062384, -0.093222, -0.119347, -0.098695, 0.042428, 0.233454, -0.318135, -0.202969, -0.027027, 0.149862, 0.100786, 0.111589, -0.033089, -0.020180, -0.137328, -0.288716, 0.058626, -0.108737, 0.497837, -0.002045, 0.146099, -0.163928, -0.144773, 0.500083, 0.247040, -0.219223, 0.088447, 0.253256, 0.263320, -0.130300, -0.401876, -0.070401, 0.188295, 0.101817, 0.402263, 0.034709, 0.154807, 0.071641, 0.060409, -0.192048, -0.397882, 0.154522, },
{0.165252, -0.505890, 0.119894, 0.037625, -0.309263, -0.398784, -0.016565, -0.268386, -0.164317, 0.179659, 0.345447, 0.153018, 0.071780, -0.153597, 0.188429, 0.109332, 0.078015, 0.056906, -0.125190, 0.274837, -0.298658, -0.125750, 0.180641, 0.086984, 0.209156, 0.066392, -0.133241, -0.077724, -0.341311, -0.176916, 0.340778, -0.105783, 0.304331, -0.058361, -0.289636, 0.400263, 0.333210, -0.192160, -0.005224, -0.409390, -0.142962, 0.040586, -0.000350, -0.206759, -0.136206, -0.186262, 0.139379, 0.271532, 0.075414, 0.184253, -0.212057, -0.286387, 0.240577, 0.058467, 0.166670, 0.157849, 0.182093, 0.076132, 0.509030, 0.215075, 0.158585, 0.045789, 0.290396, -0.079404, },
{0.532002, -0.278743, -0.253686, -0.385843, -0.212641, -0.382818, -0.472039, -0.164514, 0.078367, 0.287851, 0.201661, -0.179279, 0.169493, -0.027598, -0.184148, -0.090790, 0.265791, -0.036501, 0.320296, 0.170578, -0.033043, 0.272318, 0.524459, 0.150169, 0.066543, 0.216629, -0.633392, -0.318730, -0.241701, 0.138133, 0.095651, 0.064847, 0.305041, -0.013077, 0.073611, -0.037821, 0.232913, -0.232599, 0.279705, -0.168653, -0.115097, -0.019465, 0.194739, 0.385609, -0.005533, -0.114709, -0.044948, 0.122159, 0.052216, 0.019582, -0.166540, -0.190640, 0.051970, -0.251775, -0.248020, 0.061502, 0.305094, 0.229499, 0.261520, -0.183873, 0.277443, 0.127898, 0.378982, -0.058508, },
},
};

const float W1[HIDDEN_LAYER_SIZE][AC_SPACE_SIZE] = {
{-0.198757, -0.032147, -0.209053, 0.006373, -0.037668, },
{0.056764, 0.010872, 0.223437, -0.060037, -0.010514, },
{0.264714, -0.058336, 0.050641, 0.256350, 0.234764, },
{-0.007825, -0.002182, 0.207561, 0.155507, 0.181964, },
{-0.187455, -0.023425, 0.124115, 0.314580, 0.125029, },
{-0.016117, -0.142510, -0.032634, 0.277437, 0.034555, },
{0.140139, -0.188048, 0.173419, 0.045545, -0.000243, },
{-0.046408, 0.139049, -0.061313, -0.009625, 0.059510, },
{-0.039304, 0.032302, 0.091672, -0.115048, -0.110779, },
{-0.211882, -0.180394, -0.005097, -0.123462, -0.062232, },
{0.222444, 0.079421, -0.000905, 0.026793, 0.066154, },
{-0.084274, 0.073704, -0.429393, -0.114448, -0.097378, },
{-0.068695, -0.075691, 0.004212, -0.025009, 0.012397, },
{0.122336, -0.305476, 0.115314, 0.089725, -0.024829, },
{0.020545, 0.190843, 0.013205, 0.194238, -0.068992, },
{0.022915, -0.200982, -0.084917, 0.093969, -0.124307, },
{0.067031, -0.051328, -0.116462, -0.064545, -0.047117, },
{-0.098796, -0.125525, 0.021702, 0.224119, 0.145909, },
{-0.074104, 0.080871, -0.214362, -0.089288, -0.154458, },
{-0.085979, -0.054217, -0.013557, 0.028167, -0.015397, },
{0.008538, 0.083825, 0.057809, 0.001184, 0.319940, },
{0.202964, 0.018891, -0.115453, -0.235375, -0.172180, },
{-0.067658, -0.122803, -0.184497, -0.152469, -0.165163, },
{-0.176033, -0.074359, -0.038712, -0.192365, 0.089312, },
{0.046433, 0.030580, 0.007477, -0.136351, 0.061689, },
{-0.103426, 0.106708, 0.089706, 0.002053, 0.111845, },
{0.144896, 0.099536, 0.166880, 0.042218, -0.057200, },
{0.026307, -0.051075, 0.040790, -0.134146, -0.180016, },
{0.124325, -0.040857, 0.231744, -0.120819, -0.131419, },
{0.008139, -0.350633, 0.026150, 0.040126, 0.035229, },
{0.066655, -0.234505, -0.038230, -0.164399, 0.114959, },
{-0.137605, -0.244658, -0.384981, 0.025921, -0.034735, },
{-0.129284, -0.078239, 0.055052, -0.005379, 0.150058, },
{-0.187443, -0.082344, -0.181512, 0.056211, -0.032215, },
{-0.029951, 0.015446, -0.025349, 0.364228, -0.255651, },
{0.070303, -0.167224, -0.057607, 0.230232, -0.130047, },
{0.100185, 0.105877, 0.032033, -0.036215, -0.045230, },
{0.051944, 0.056081, 0.011697, 0.033859, 0.204061, },
{0.128086, 0.064909, 0.031742, 0.050808, -0.272753, },
{0.082783, -0.213155, 0.138135, 0.225095, -0.002118, },
{0.026884, -0.064323, -0.189582, 0.159949, -0.213605, },
{-0.147112, 0.261491, 0.088483, -0.009256, 0.019743, },
{-0.250161, 0.017952, 0.072711, -0.037446, -0.121456, },
{-0.295999, 0.142161, 0.081047, 0.196516, -0.038425, },
{-0.183685, -0.038638, 0.119986, 0.261509, 0.007383, },
{-0.282854, -0.057559, 0.143541, 0.272092, -0.040450, },
{-0.048769, -0.054317, 0.012381, -0.086389, 0.136632, },
{-0.127088, 0.285032, 0.035137, -0.137110, 0.114756, },
{0.062340, -0.057245, 0.147059, -0.096698, -0.026516, },
{0.078358, -0.134600, -0.108645, 0.107585, 0.100316, },
{0.056058, -0.166548, -0.014792, 0.007770, -0.140803, },
{0.055419, 0.177424, 0.056895, 0.224707, 0.060895, },
{0.156565, 0.195596, -0.035453, -0.250367, 0.148001, },
{0.070423, 0.024395, 0.020203, 0.023586, -0.064283, },
{0.017167, -0.011697, 0.095445, 0.067256, 0.145618, },
{-0.160059, 0.145964, 0.052836, 0.185377, -0.019361, },
{0.072645, -0.008229, -0.127149, -0.127733, 0.197735, },
{-0.362315, 0.039066, -0.108532, 0.029168, -0.096910, },
{0.139788, 0.198666, -0.135840, -0.170921, 0.043204, },
{0.000435, -0.224576, 0.059135, -0.067334, -0.107257, },
{-0.057120, -0.097000, -0.120987, -0.048267, 0.125496, },
{-0.149889, 0.221442, -0.124932, 0.002396, 0.113958, },
{-0.044857, 0.175488, -0.148529, -0.179629, 0.251210, },
{-0.115512, 0.180806, 0.247021, 0.008501, -0.081752, },
};

const float b0[HIDDEN_LAYER_SIZE] = {0.103967, 0.114269, 0.046957, 0.195334, 0.068027, 0.202207, 0.530560, 0.004701, 0.196569, -0.153636, -0.200003, -0.122515, 0.209726, -0.084599, -0.103966, 0.239217, -0.315540, -0.214283, -0.117536, 0.067052, 0.166681, -0.260367, -0.201719, 0.165939, 0.215749, 0.060186, -0.073783, -0.114638, -0.177230, 0.368304, -0.004757, 0.164380, 0.018743, -0.066815, 0.090214, 0.134040, -0.195722, 0.462800, 0.314147, 0.137453, 0.137702, -0.016593, 0.003504, -0.081432, 0.401403, 0.170390, -0.011734, 0.048166, 0.449355, -0.257201, 0.374927, 0.081735, 0.078489, 0.006845, 0.419356, -0.017019, -0.090057, 0.118003, 0.186619, -0.064485, 0.012215, -0.257182, -0.163314, -0.085511, };

const float b_hidden[NUM_HIDDEN_LAYER - 1][HIDDEN_LAYER_SIZE] = {
{-0.197475, 0.314042, 0.071057, -0.035442, 0.027570, 0.480336, -0.166824, 0.070804, -0.007720, -0.231715, 0.157312, 0.123585, -0.150141, 0.111627, 0.165069, -0.327248, -0.048442, 0.036638, 0.102037, -0.060178, 0.586315, 0.061554, -0.275532, -0.189436, 0.002832, 0.133710, 0.132086, -0.027013, 0.194386, 0.036828, -0.196403, -0.086326, -0.122795, -0.152448, 0.437159, -0.152550, 0.025440, 0.195870, -0.307327, 0.462765, 0.167325, 0.258975, -0.134162, 0.164926, -0.006442, -0.143204, -0.154524, 0.162082, 0.051532, 0.097812, -0.054564, 0.259446, 0.173650, -0.027326, -0.053429, 0.028066, -0.089271, -0.016017, -0.137561, -0.177268, -0.170357, 0.081568, 0.011475, 0.083077, },
};

const float b1[AC_SPACE_SIZE] = {0.041309, 0.173984, 0.049490, 0.182194, 0.010171, };

const float ob_mean[OB_SPACE_SIZE] = {0.004350, 0.153483, 0.022958, 0.009967, -0.079639, 0.000801, 0.261660, -0.019726, -0.333714, 0.197841, -0.034936, -0.227018, -0.042308, };

const float ob_std[OB_SPACE_SIZE] = {0.323648, 0.213499, 0.327067, 0.385653, 0.833786, 0.100000, 1.199285, 0.475231, 1.073960, 0.678830, 0.370640, 0.702310, 0.213205, };

}
#endif
