#ifndef __AP_MOTORS_POLICY_DEF_H__
#define __AP_MOTORS_POLICY_DEF_H__

const int STATE_SIZE = 9;
const int OB_SPACE_SIZE = 13;
const int AC_SPACE_SIZE = 4;
const int NUM_HIDDEN_LAYER = 2;
const int HIDDEN_LAYER_SIZE = 64;
const float FINAL_BIAS = 3.500000;

const float W0[OB_SPACE_SIZE][HIDDEN_LAYER_SIZE] = {
{0.101373, -0.617322, 0.517217, 0.392063, 0.040280, 0.055757, 0.024093, -0.755148, -0.630508, -0.692865, 0.060449, -0.256607, 0.109707, 0.408034, -0.137887, -0.270998, 0.079481, 0.403973, 0.149947, 0.117126, 0.214835, 0.812326, -0.760251, 0.446704, 0.113823, 0.266276, -0.028356, -0.273111, -0.458356, 0.253115, -0.091412, 0.497957, -0.079608, -0.345909, 0.020602, 0.201655, 0.105711, 0.434099, 0.208309, -0.365414, -0.593192, 0.102721, 0.360473, -0.095297, -0.428372, -0.399332, 0.432496, -0.090864, 0.020083, 0.439437, 0.891049, 0.524128, 0.328527, 0.753153, 0.848488, -0.026764, 0.108884, -0.057163, -0.434018, 0.237265, -0.144977, -0.413470, 0.595079, 0.121961, },
{0.598689, 0.013645, -0.214118, 0.545054, 0.100199, -0.403715, 0.363614, -0.087346, 0.218656, 0.213267, 0.233500, 0.287098, -0.041226, 0.094626, -0.039946, 0.261505, -0.352818, -0.145512, -0.345690, -0.232486, -0.057555, 0.315848, 0.140899, -0.357536, -0.261305, 0.020201, 0.373080, -0.370954, 0.179768, 0.138237, -0.186565, -0.650083, 0.315330, -0.274743, -0.557318, -0.060095, 0.420219, -0.019415, 0.001976, -0.057654, -0.249963, 0.055036, -0.265842, 0.094878, -0.224154, -0.277992, 0.152669, -0.131921, 0.548248, -0.205130, 0.087859, 0.377972, 0.048540, 0.306121, 0.146914, 0.755828, 0.249032, 0.009601, 0.166706, 0.285463, -0.231289, 0.495331, 0.224277, 0.039666, },
{-0.014288, 0.028777, 0.227153, -0.819392, -0.801473, 0.104087, -0.015089, 0.183109, -0.022307, 0.121248, -0.936118, -0.243334, 0.732148, 0.266062, -0.628469, -0.499161, -0.450908, -0.027734, 0.094153, -0.761485, -0.150976, 0.213759, -0.258033, -0.136827, 0.169100, 0.416508, -0.178988, -0.505541, 0.128172, -0.148584, -0.411076, 0.003487, 0.816387, -0.183946, -0.326750, 0.486650, 0.078446, 0.410631, -0.068156, -0.380805, -0.624557, 0.161966, 0.289867, 0.030978, 0.073343, -0.343342, -0.306305, -0.225725, 0.345075, 0.233280, -0.057694, -0.332778, 0.413572, -0.566584, -0.072123, 0.092252, 0.241715, 0.360323, 0.241672, 0.087853, 0.325349, 0.275448, -0.222856, 0.430638, },
{-0.102972, 0.428103, 0.701128, 0.421174, -0.149919, -0.220800, 0.171667, 0.007098, 0.187828, -0.185933, 0.208037, -0.131937, 0.647562, 0.359269, 0.295397, 0.025769, -0.100329, 0.129749, 0.120043, -0.677388, -0.373398, 0.310788, -0.058859, 0.114868, -0.014955, 0.105841, -0.420654, 0.191514, -0.153675, -0.530800, -0.286187, 0.206488, -0.020008, 0.208726, 0.472529, 0.412205, 0.069305, -0.587970, -0.127658, -0.357124, -0.329070, -0.028711, 0.438612, 0.055827, 0.294309, 0.091564, 0.125098, 0.291046, 0.046583, 0.104178, 0.095427, 0.322352, -0.581079, 0.002960, 0.742837, -0.053328, 0.131770, 0.796283, -0.049523, -0.394516, 0.316199, 0.219260, 0.188642, 0.235010, },
{1.305513, -0.723057, 0.662724, -0.424230, 0.443189, -0.940056, 0.805187, -0.762320, -0.887033, -0.443052, 0.217100, -1.288690, 0.245893, -1.156242, 0.744954, -0.075090, -0.712902, -0.677213, -0.332564, 0.156471, -0.163283, 0.358370, 0.778784, -0.589008, -1.346358, -0.517107, 0.295348, -0.109241, -0.241811, 0.708299, -0.648738, -0.226444, 0.799400, -0.380597, 0.325323, -0.830681, 1.166585, -0.557509, 0.726791, -0.097748, 0.247499, -1.403427, 0.066158, -0.296020, -0.179317, 0.498904, 0.199691, -0.763741, 0.919767, -0.883863, -0.172019, -0.710532, -0.475271, 0.379094, 0.808380, 0.448382, 0.437636, 0.305350, 1.933418, -0.126342, 0.168155, -0.026066, 0.076772, 0.019666, },
{0.435979, 0.181263, -0.596297, -0.127598, -0.148380, 0.262082, -0.066949, -0.158393, 0.124366, 0.213434, 0.137043, -0.387035, -0.082751, -0.630850, 0.427728, 0.051975, 0.299929, 0.402788, -0.174779, -0.017028, 0.226096, -0.048675, 0.188880, 0.080932, 0.182654, 0.559776, 0.522580, -0.183972, -0.042047, -0.552640, -0.503867, 0.327675, 0.874274, 0.659686, -0.677497, 0.444592, -0.417575, 0.218373, 0.473570, -0.783547, 0.255496, -0.449268, 0.115427, 0.405174, -0.178747, 0.010360, -0.063586, 0.115413, 0.507870, -0.672060, -0.442242, 0.194275, -0.117467, -0.365618, 0.067944, -0.357909, -0.244436, 0.311196, 0.189129, 0.510870, 0.698140, 0.823909, -0.187469, 1.188573, },
{0.284923, -0.024198, 0.071571, 0.119880, 0.172433, -0.101473, -0.079265, -0.143850, -0.000270, 0.383138, -0.021182, -0.161826, -0.054839, 0.078391, 0.016246, 0.018480, 0.032236, -0.449442, -0.129990, 0.030008, 0.033692, 0.490679, -0.167822, 0.315816, -0.229899, 0.387735, 0.207764, -0.029908, -0.164709, 0.177055, 0.131179, -0.483267, -0.212784, 0.043064, -0.115509, -0.193219, -0.050597, 0.536509, 0.208144, -0.230921, 0.021924, -0.265086, 0.299799, 0.106175, 0.495770, 0.502986, -0.519783, 0.267210, -0.048695, 0.140103, -0.290982, -0.054521, -0.039254, 0.146968, -0.223939, 0.507856, 0.484957, -0.001305, 0.143466, 0.308572, 0.022482, -0.285852, 0.185084, -0.186398, },
{-0.116341, 0.497225, -0.049381, -0.239967, -0.237706, -0.562192, -0.475165, 0.223418, 0.440106, 0.657644, -0.244925, -0.163286, -0.227548, 0.194972, 0.460380, -0.751620, 0.158021, 0.023303, 0.223281, -0.269906, 0.037972, -0.163784, 0.517570, 0.287294, 0.304721, 0.316619, 0.038343, 0.286580, 0.884685, -0.272041, -0.297179, -0.115718, 0.182000, -0.178781, 0.061476, -0.180778, 0.167960, -0.101064, -0.016024, -0.493710, 0.212426, 0.218034, -0.073256, 0.703045, -0.291088, 0.672685, -0.577631, -0.644704, -0.242306, -0.627223, -0.561781, 0.045532, -0.139526, -0.068090, -0.170352, 0.399101, 0.130025, 0.279366, 0.110744, 0.136027, 0.277129, 0.174163, -0.018916, 0.229019, },
{-0.155668, -0.286569, 0.061941, -0.043131, 0.267914, -0.283344, -0.672784, -0.288021, 0.226911, 0.425326, -0.065365, 0.307697, 0.287645, 0.108744, -0.235003, -0.324636, -0.366424, 0.316964, -0.239253, 0.092028, 0.733055, 0.147111, 0.629916, 0.375235, -0.529874, -0.472685, 0.971144, 0.253049, -0.553144, 0.175311, -0.374032, -0.064481, -0.275657, -0.059687, 0.075081, -0.262866, -0.321932, 0.004489, -0.129922, 0.010450, 0.033651, -0.177174, -0.393164, 0.077360, -0.758736, -0.157932, 0.549667, 0.163082, -0.490443, -0.096062, -0.366047, 0.403595, -0.555537, 0.194634, -0.431650, 0.092368, -0.237871, -0.675901, -0.025193, 0.705100, -0.355084, -0.379933, 0.564580, -0.161588, },
{0.551205, 0.006559, -0.477735, 0.354445, -0.610345, -0.449829, -0.119353, 0.549144, 0.185578, -0.020895, 0.559890, -0.101335, -0.023218, 0.188325, 0.223388, 0.033356, 0.285902, 0.086015, -0.645822, 0.340385, -0.187124, -0.032058, -0.327021, 0.274054, -0.149204, 0.014628, 0.446031, -0.429083, -0.498481, 0.145102, 0.329975, -0.384737, 0.375247, -0.176560, -0.302518, -0.182827, 0.133529, -0.014641, 0.149530, -0.351309, 0.682757, 0.025756, 0.081694, -0.547747, 0.255386, -0.090652, -0.323071, 0.298336, 0.001914, -0.145689, -0.262580, 0.344705, 0.084563, -0.334682, -0.044065, 0.145663, 0.353867, -0.144077, -0.027153, 0.212253, 0.298399, -0.061205, -0.330764, -0.089257, },
{-0.281338, -0.367556, -0.052925, 0.087303, -0.155558, -0.274543, -0.220002, 0.097665, 0.168112, -0.043005, -0.102020, 0.373129, 0.390729, 0.103151, 0.149928, -0.112331, 0.473162, 0.371023, -0.470407, 0.100962, -0.410654, -0.132317, 0.337972, 0.059784, -0.077329, 0.180059, -0.287985, 0.943435, 0.272498, 0.324353, -0.171853, -0.026795, -0.298184, -0.081106, 0.029997, -0.270309, 0.253525, 0.327465, 0.755673, 0.195401, 0.017385, 0.067529, -0.079962, -0.291083, -0.057269, -0.068383, -0.084487, 0.453057, 0.229444, 0.097925, -0.250578, 0.085993, -0.015737, -0.332246, 0.045855, 0.089515, 0.686706, -0.061712, 0.121866, -0.272152, -0.038614, -0.053262, 0.207906, -0.044553, },
{0.197117, -0.052734, -0.378781, 0.172188, -0.009057, -0.592447, 0.005129, 0.064628, -0.362549, -0.121661, -0.112997, 0.108062, -0.408678, -0.505083, 0.151179, -0.301947, 0.144505, -0.139410, 0.193871, 0.383394, -0.388813, 0.714661, 0.242058, 0.279836, 0.411000, 0.392212, 0.242277, -0.302020, -0.479089, 0.410398, 0.378394, -0.293297, 0.049453, -0.199191, -0.267558, 0.073095, -0.347459, -0.039240, 0.412988, 0.016653, -0.014732, 0.454233, -0.547283, 0.213531, -0.159315, -0.306430, -0.109515, -0.210970, -0.274239, -0.077907, 0.149697, -0.327766, -0.026581, -0.387349, -0.231514, 0.333370, 0.631535, -0.197632, 0.196828, 0.327415, 0.420725, 0.312234, -0.324870, 0.092596, },
{-0.051103, -0.307823, -0.428286, 0.136913, -0.218598, 0.196479, 0.404449, 0.175792, 0.620476, -0.214825, 0.281777, 0.058585, -0.327389, -0.372707, -0.287975, 0.512262, 0.387199, 0.156153, 0.029395, -0.038443, -0.462047, -0.384734, -0.267149, -0.101451, -0.290834, -0.181867, -0.202253, 0.013333, 0.332693, -0.067846, 0.305462, 0.303412, 0.002751, -0.679894, -0.126011, -0.117572, 0.446793, 0.116679, -0.035595, -0.552659, 0.104435, 0.194834, -0.430264, -0.064269, 0.253889, 0.217571, -0.344104, 0.260799, 0.133365, -0.248874, 0.214634, 0.325434, -0.575098, 0.174835, -0.160017, 0.167905, -0.029855, -0.455712, -0.044159, 0.145025, -0.320290, -0.151638, -0.211765, 0.051145, },
};

const float W_hidden[NUM_HIDDEN_LAYER - 1][HIDDEN_LAYER_SIZE][HIDDEN_LAYER_SIZE] = {
{
{-0.151231, -0.045556, 0.077730, -0.427288, 0.432120, 0.233743, 0.270098, 0.201737, -0.088550, -0.141607, -0.018670, -0.284295, -0.042503, -0.113174, -0.169006, -0.150349, -0.098818, 0.551437, -0.288920, 0.043333, 0.148925, 0.143453, -0.052041, 0.104960, -0.182230, 0.082957, -0.060669, 0.058522, -0.063548, -0.054814, -0.419629, -0.043784, -0.252665, 0.130740, -0.032392, 0.222161, -0.133586, 0.120275, 0.059502, 0.013021, 0.059143, 0.013601, 0.101988, -0.425380, -0.171343, -0.139822, 0.149055, -0.159815, 0.238052, 0.233227, 0.389906, -0.121370, 0.169353, -0.092950, 0.068943, 0.149000, 0.474683, 0.108488, 0.250006, 0.063621, 0.051483, 0.187513, -0.302629, -0.118322, },
{-0.037195, 0.470524, -0.245178, -0.050541, -0.118174, -0.138742, -0.235769, -0.049676, -0.326995, 0.045517, 0.121173, 0.231929, 0.203104, 0.224774, -0.112303, -0.377995, -0.161578, 0.021962, -0.092782, 0.000751, -0.480021, -0.157815, 0.340501, -0.327602, 0.145550, -0.124850, -0.178926, -0.154426, 0.082223, 0.095761, 0.048706, 0.281325, 0.357106, -0.027196, 0.240880, -0.093981, -0.042216, 0.286062, 0.187376, 0.138966, 0.108605, 0.277137, 0.241633, -0.205630, -0.071491, -0.213479, 0.062542, -0.051640, 0.081464, 0.254195, 0.167754, 0.048834, 0.063587, 0.006887, 0.105446, -0.076248, -0.209155, -0.013214, 0.135460, 0.089436, 0.101754, -0.167826, 0.272807, 0.007433, },
{0.353269, -0.024060, 0.179246, -0.120323, 0.045146, -0.388512, 0.345314, -0.375780, 0.259832, 0.026236, 0.144566, -0.038873, 0.004678, -0.196508, 0.253918, -0.186228, 0.189442, 0.012701, 0.129907, 0.227283, -0.263288, 0.370268, -0.299654, 0.178274, -0.451765, 0.186252, -0.096009, -0.162441, -0.038989, 0.219977, -0.096084, 0.053548, 0.249484, -0.000810, 0.031977, -0.151112, 0.291651, 0.207056, -0.218873, 0.119531, 0.795949, 0.208259, 0.172312, 0.025787, 0.210150, 0.308559, -0.102922, -0.082713, -0.551342, -0.005292, 0.301608, -0.159862, -0.241995, -0.152827, 0.354671, -0.119043, -0.118857, 0.245943, 0.103970, 0.318106, 0.090207, 0.059380, -0.028509, 0.037599, },
{-0.286523, 0.121207, 0.348764, 0.114481, 0.155056, 0.272979, 0.149515, -0.067302, -0.226891, -0.202259, -0.360623, -0.470707, -0.276641, 0.051718, 0.103677, -0.018976, -0.182713, -0.442500, 0.216245, 0.094611, -0.178841, -0.278042, -0.261864, -0.154085, 0.247720, -0.130148, 0.235338, 0.416773, 0.167676, 0.230176, 0.174691, -0.369041, 0.167533, -0.088524, 0.195410, 0.184516, 0.287837, -0.235237, 0.112675, 0.105803, -0.099666, 0.019467, 0.119769, -0.499714, -0.007036, 0.135310, 0.205798, -0.048043, 0.166255, -0.294864, -0.188664, 0.285751, 0.299916, 0.158644, -0.054496, -0.346702, -0.127053, 0.014645, -0.184374, 0.045052, -0.164773, 0.044713, -0.058843, -0.027411, },
{-0.112065, -0.039664, -0.044362, -0.270871, 0.105179, -0.098297, 0.132407, -0.215882, 0.086908, 0.223356, -0.386504, -0.090434, -0.253507, -0.197949, 0.129519, -0.245451, 0.064692, -0.035812, -0.012781, 0.157428, 0.233920, -0.026077, -0.155168, 0.072692, 0.234029, 0.159830, -0.175560, 0.062179, -0.171484, -0.475731, 0.059136, 0.258656, -0.072602, -0.474638, -0.145853, 0.045957, 0.277657, -0.109493, 0.157417, -0.176377, -0.043963, -0.252575, -0.355945, -0.046005, 0.072105, -0.077473, 0.114279, 0.227351, 0.019742, 0.149565, -0.154724, 0.161944, -0.048420, 0.038348, 0.268758, -0.331031, 0.067228, -0.370040, -0.032706, -0.170896, 0.076927, 0.168371, -0.247412, -0.041534, },
{0.020129, 0.074649, -0.300739, 0.256548, 0.242432, 0.145499, -0.554541, 0.399113, -0.010724, -0.148524, 0.371577, -0.044427, 0.039634, 0.276895, -0.202296, 0.075838, -0.049784, -0.343115, 0.053785, 0.059111, 0.341386, -0.067808, 0.314830, 0.092214, 0.251787, 0.205009, -0.142329, -0.449714, -0.412166, 0.047638, 0.114316, -0.256284, -0.072899, 0.126500, 0.179949, -0.211525, -0.150756, 0.021909, 0.212725, -0.494409, -0.183662, -0.129317, -0.208289, 0.041347, -0.386354, -0.068278, 0.082910, -0.093340, 0.139042, 0.042679, -0.294286, 0.086715, -0.339765, -0.296913, -0.027006, 0.034252, -0.466996, 0.006881, 0.116574, 0.106605, 0.022484, -0.092771, -0.060176, 0.561626, },
{0.017488, -0.037906, 0.071393, -0.068495, 0.364909, -0.115208, -0.231525, -0.187897, 0.236959, 0.339121, 0.307186, -0.437766, 0.133603, -0.208957, 0.020118, -0.194366, 0.110455, -0.092929, -0.077357, 0.011129, -0.008820, 0.301167, 0.046199, 0.116904, 0.254101, 0.138491, 0.118002, -0.028542, 0.020661, 0.085376, -0.403361, 0.111387, 0.228632, -0.108474, -0.150907, 0.416657, 0.405103, -0.012368, 0.007240, -0.040784, 0.214433, -0.143840, -0.347254, -0.294072, 0.190640, -0.013400, 0.017480, -0.132007, -0.230086, 0.101009, 0.249240, -0.392768, 0.185149, -0.000514, 0.084878, -0.566065, -0.062478, -0.146959, 0.207837, 0.039514, -0.039630, -0.349530, 0.086990, -0.153271, },
{-0.107285, 0.135941, -0.375869, 0.220975, -0.296701, -0.144280, -0.375471, 0.153989, -0.352955, -0.208761, -0.216794, 0.439368, 0.105446, 0.179403, -0.250879, 0.109295, -0.037046, -0.068951, -0.346143, -0.319675, -0.425974, -0.172735, 0.094535, -0.093532, -0.125075, -0.042177, 0.042996, -0.277432, -0.300566, -0.026066, 0.067827, 0.191436, 0.216128, 0.483465, 0.258374, -0.037305, 0.005113, -0.038101, -0.108502, 0.008525, -0.007309, 0.092731, 0.055548, 0.108358, 0.043544, -0.148959, -0.040164, -0.064549, 0.025034, 0.175291, 0.183878, 0.024702, -0.217966, 0.014256, -0.300295, 0.194438, 0.224094, 0.254782, 0.109376, -0.083053, -0.266885, -0.007147, 0.310834, 0.082596, },
{-0.116096, 0.338023, -0.086220, 0.114708, -0.422325, 0.180351, -0.172581, 0.030825, -0.294123, 0.085878, -0.197913, 0.081921, -0.266967, 0.053484, -0.090090, -0.045687, -0.289546, 0.056942, -0.157038, -0.382430, -0.392721, -0.585341, 0.219778, -0.014776, -0.088209, 0.052110, -0.116132, -0.180730, 0.011967, 0.081172, 0.355854, -0.221680, 0.121349, 0.607588, 0.205978, 0.050625, -0.009328, -0.020466, -0.018173, 0.211098, -0.083117, 0.080741, 0.006663, 0.036298, 0.075168, 0.054790, 0.099597, -0.011501, -0.068220, -0.120814, 0.198514, 0.204464, 0.155126, -0.357357, -0.269097, -0.020487, 0.299129, 0.109108, 0.109824, 0.037350, -0.190687, -0.117958, 0.394187, -0.073879, },
{-0.184669, 0.378610, -0.294931, 0.140230, -0.051429, 0.110004, 0.107895, 0.076998, -0.361619, -0.185179, -0.366726, 0.176020, 0.446804, -0.045565, -0.317928, -0.134021, -0.207035, 0.250861, -0.028089, -0.281214, -0.297219, -0.175217, 0.276558, -0.348474, -0.365715, 0.058212, -0.207384, 0.166101, -0.074495, 0.071144, 0.301091, 0.104801, 0.215982, 0.316532, 0.370101, 0.314634, -0.239548, 0.232033, 0.086901, 0.500063, -0.433784, -0.206384, 0.104854, 0.224874, -0.364432, -0.234465, 0.432093, 0.237544, 0.274661, 0.223902, -0.304446, -0.062230, -0.180882, -0.066429, -0.121946, 0.339105, 0.008175, 0.028237, 0.076175, -0.140089, -0.256286, -0.105944, -0.118434, 0.072304, },
{0.211029, -0.012074, -0.194429, -0.296937, -0.028149, 0.122542, 0.070339, 0.049809, -0.011319, -0.194432, 0.088832, -0.249682, -0.080075, -0.041200, -0.223475, -0.120695, 0.075968, 0.190742, 0.169004, 0.280111, -0.101738, -0.112724, -0.119082, 0.220682, 0.076847, -0.236968, -0.020464, 0.250346, 0.225709, 0.272401, 0.079765, -0.007488, -0.307022, 0.440831, -0.044005, 0.253463, 0.022677, -0.304771, 0.246461, -0.022397, -0.133198, 0.150096, 0.071371, -0.427559, -0.168443, 0.028293, -0.116759, -0.487061, 0.173795, -0.125489, -0.041734, 0.291960, 0.147458, -0.040016, -0.094011, -0.023891, -0.055004, -0.041616, -0.025418, -0.080595, -0.098103, -0.092842, -0.004519, -0.274466, },
{-0.059390, 0.151977, 0.008050, -0.007444, -0.325079, 0.064669, -0.051583, -0.041200, -0.033721, 0.110656, -0.275954, 0.040837, -0.045461, 0.112961, 0.036261, -0.131147, 0.143507, 0.014912, 0.279794, -0.090131, -0.158812, -0.171468, 0.230086, 0.099968, -0.093417, 0.000135, -0.021714, -0.130465, 0.131418, -0.398335, 0.188181, -0.154836, 0.046326, 0.110347, 0.259686, 0.197140, -0.082728, -0.256765, -0.214949, -0.043004, -0.255006, -0.371667, -0.229338, 0.313788, -0.303871, -0.090593, 0.041317, -0.000626, -0.004542, -0.044164, -0.035329, 0.372198, -0.009764, 0.061815, -0.252743, -0.087259, -0.325619, -0.241903, -0.083724, 0.239671, 0.010052, 0.237240, 0.068847, -0.180062, },
{-0.223325, 0.119715, 0.297628, 0.035737, -0.174639, -0.025193, -0.016842, -0.136302, 0.159196, 0.293583, -0.015436, -0.322985, -0.209799, 0.088586, 0.388159, 0.028367, -0.125953, 0.092182, 0.016236, 0.221447, -0.137275, -0.234160, 0.148198, 0.266893, -0.312557, -0.110393, 0.037882, -0.145185, 0.187605, -0.176822, -0.036453, 0.019158, -0.070659, -0.037085, 0.073581, -0.258944, 0.060252, -0.030667, -0.303823, 0.072675, 0.493672, 0.565389, 0.351614, 0.245360, 0.057722, 0.023839, -0.107639, 0.058718, -0.386544, 0.026630, 0.273810, -0.191542, 0.025804, 0.062167, -0.138956, -0.075187, 0.139210, 0.533584, 0.082303, 0.059752, -0.029343, -0.070655, -0.116149, -0.260421, },
{-0.025157, 0.362889, 0.190300, -0.028422, -0.251872, -0.068475, -0.345950, -0.088229, -0.590319, 0.017018, -0.205797, -0.093613, -0.059973, 0.428936, -0.140500, -0.373947, -0.194783, -0.364774, -0.149280, 0.135733, -0.562898, 0.015908, -0.046063, -0.016943, -0.410521, -0.047419, 0.140102, -0.267840, 0.310033, 0.078319, 0.046034, -0.271600, 0.350942, 0.167120, 0.006963, -0.190367, 0.332652, -0.202065, -0.292567, 0.085371, 0.080931, -0.027894, -0.001289, 0.296890, 0.010890, -0.036366, -0.013408, -0.159369, -0.161502, 0.164586, -0.089974, 0.227025, -0.125270, -0.035071, 0.038704, -0.143077, -0.258555, 0.042813, 0.109735, 0.077945, -0.265207, -0.371890, 0.335971, 0.086864, },
{0.069056, 0.297659, -0.066411, 0.086658, -0.123627, -0.100882, -0.086638, 0.131060, -0.209084, 0.013729, 0.222681, 0.274553, -0.187715, -0.293086, 0.116828, -0.157029, 0.186342, 0.231663, 0.181429, 0.070630, -0.091016, -0.142165, -0.158091, -0.131219, -0.397097, -0.237080, 0.207455, -0.091197, -0.069916, -0.120396, 0.096023, 0.239580, 0.203678, 0.166611, 0.109752, 0.340836, 0.233834, 0.258579, -0.136050, 0.214611, -0.030218, 0.313608, 0.412204, -0.417988, 0.050757, 0.257199, -0.205071, 0.163888, 0.300342, 0.124888, 0.369958, -0.120421, 0.396943, 0.032097, 0.036933, -0.246197, 0.190713, 0.183033, 0.076412, -0.084524, -0.206635, -0.043450, -0.099591, -0.159210, },
{-0.256054, -0.208844, 0.129931, 0.194126, 0.159657, 0.216537, 0.091534, 0.179601, -0.271935, -0.001163, 0.110129, -0.052142, -0.089644, -0.093319, -0.078595, -0.227327, 0.093647, -0.307898, 0.099746, 0.187835, 0.267994, 0.161293, 0.055847, -0.009526, 0.515438, 0.099461, 0.207938, -0.169050, 0.030419, 0.146558, -0.268867, -0.186828, 0.368947, 0.141737, 0.110186, 0.165450, 0.106846, -0.297150, 0.322010, -0.243141, -0.265665, 0.140094, -0.154128, -0.316257, -0.236521, 0.026166, -0.225692, -0.281707, 0.004404, 0.204905, -0.230759, 0.211685, -0.120395, -0.180996, -0.186491, -0.311355, 0.193684, -0.318212, 0.073056, 0.030131, -0.051837, -0.162911, -0.006579, 0.094158, },
{0.014213, -0.095118, -0.337590, -0.288439, -0.197915, 0.264619, -0.130244, 0.295275, 0.056236, -0.232609, 0.041674, 0.201706, -0.164590, -0.422516, -0.274231, 0.103971, 0.065918, -0.157650, 0.057353, -0.137820, -0.215151, 0.104315, -0.207325, 0.148219, -0.137200, 0.100762, 0.286690, -0.232540, 0.187517, -0.004927, 0.250642, -0.056444, -0.007063, 0.222297, 0.142271, 0.148798, -0.066444, 0.034978, -0.030366, -0.013512, -0.138755, -0.004378, 0.121762, 0.141740, 0.084081, 0.056656, 0.157645, -0.016283, 0.061331, -0.417081, -0.130452, 0.280013, 0.144368, 0.257881, -0.104954, 0.427606, 0.194222, 0.057861, -0.234239, -0.102006, 0.122879, 0.057759, 0.191689, -0.144587, },
{-0.100326, 0.131668, 0.044548, -0.105218, -0.075477, 0.172540, -0.352117, 0.103279, 0.075531, 0.058394, 0.145696, 0.061902, -0.411703, -0.035127, 0.088968, -0.067922, 0.133166, -0.108842, -0.094229, -0.061308, 0.123286, -0.231327, 0.161271, -0.027441, 0.035791, 0.263816, 0.194786, -0.127201, -0.034624, -0.092104, 0.117050, 0.080100, -0.043150, 0.168955, 0.118076, -0.224317, -0.040588, 0.005320, -0.146748, -0.003328, 0.164807, 0.407974, 0.122970, 0.108934, 0.108629, 0.434416, -0.078402, 0.019294, 0.195670, -0.361626, 0.064208, -0.134492, -0.023043, 0.083904, 0.007069, 0.070125, 0.029395, 0.214982, -0.253018, 0.261181, -0.012426, 0.174756, -0.072559, 0.095312, },
{0.301073, -0.004764, -0.080988, -0.084208, -0.192435, -0.127686, 0.156370, -0.211382, 0.112801, 0.089790, 0.393843, 0.156345, -0.151745, 0.022879, -0.054937, -0.016348, -0.181558, -0.070984, 0.054927, 0.352035, 0.091235, -0.083062, -0.299442, -0.098594, -0.096559, -0.007605, -0.226395, -0.274599, -0.328241, 0.190315, -0.084378, 0.190151, 0.026908, -0.152592, 0.188125, -0.299058, 0.109469, 0.151426, -0.239649, -0.150547, 0.090318, -0.191389, -0.218475, 0.222285, 0.253816, 0.059302, 0.063303, 0.160734, -0.311990, -0.236562, 0.146331, -0.499112, 0.094814, 0.298735, 0.044847, -0.094776, -0.213729, -0.248972, -0.159707, 0.160343, -0.009961, -0.006455, 0.063285, -0.128633, },
{0.078085, -0.125082, 0.208234, 0.016829, -0.035175, 0.039160, 0.118239, 0.392120, -0.025895, -0.164493, 0.273821, -0.006916, 0.202229, 0.194405, -0.222339, -0.023806, 0.188252, 0.159132, 0.271460, -0.245730, 0.266504, 0.097332, -0.124717, -0.180091, 0.055176, 0.083345, 0.048977, 0.043665, 0.110442, 0.036126, -0.066809, -0.050390, -0.203529, -0.039192, -0.307651, -0.061489, 0.162674, -0.305260, 0.126361, -0.116659, -0.603248, -0.012449, -0.148493, -0.028180, -0.084035, -0.097555, -0.005785, -0.052047, 0.537049, -0.208081, -0.006112, 0.110843, 0.007454, -0.006007, -0.118299, 0.305326, -0.018027, -0.428588, 0.012696, 0.056470, 0.236686, 0.241327, -0.217060, 0.068802, },
{-0.007738, 0.079731, 0.029968, -0.176985, -0.124483, 0.080217, 0.034499, -0.219440, 0.283606, -0.028816, 0.065036, 0.320151, 0.239586, 0.171587, 0.207925, -0.048028, -0.028289, 0.285477, 0.220470, 0.125630, 0.199697, -0.040273, 0.231472, 0.123802, 0.101533, -0.093295, -0.406475, 0.135570, 0.180291, -0.115609, 0.063317, 0.033409, -0.233283, -0.208569, -0.142685, -0.276714, -0.189424, -0.070994, -0.123491, -0.208170, 0.080058, -0.110732, 0.002936, 0.172942, -0.149785, 0.341560, 0.206983, 0.318664, 0.157618, 0.076722, -0.152629, 0.080507, -0.012274, -0.047259, 0.278701, 0.328138, -0.231218, -0.148667, -0.097664, 0.272450, 0.043203, -0.146951, -0.189056, -0.044722, },
{-0.330249, -0.364628, 0.542502, 0.047418, 0.358328, -0.050401, 0.117641, -0.376839, 0.159520, -0.080383, -0.001956, -0.368453, -0.364906, -0.301700, 0.242136, -0.039687, -0.210540, 0.034765, 0.023748, 0.079499, -0.173862, 0.183476, -0.010696, 0.178428, -0.214882, -0.582411, 0.007628, 0.301921, 0.468754, 0.404002, -0.521284, -0.184928, -0.184416, -0.094869, -0.257232, -0.180703, -0.005037, 0.004656, -0.272030, 0.278683, 0.191055, 0.047611, 0.074936, -0.291888, 0.046965, 0.218075, -0.092100, 0.086855, 0.250839, -0.142518, -0.011640, -0.056402, -0.068289, 0.104008, 0.129032, 0.173907, -0.102091, 0.203217, -0.099931, 0.153596, -0.007149, 0.213986, -0.236667, -0.101732, },
{-0.106792, 0.470105, -0.064492, 0.053446, -0.071688, 0.142962, 0.462587, -0.117306, 0.020941, 0.187856, 0.034315, 0.119942, -0.004709, 0.273995, 0.368051, 0.391833, -0.319449, 0.760737, 0.047354, -0.039183, 0.148300, -0.048017, -0.004371, -0.090910, -0.264974, -0.118002, 0.146657, 0.306135, 0.462403, -0.399126, 0.003377, 0.194045, 0.152489, -0.177001, 0.059890, -0.036048, -0.082853, 0.259087, -0.446300, 0.214034, -0.011992, -0.086597, 0.256957, -0.065800, 0.001644, 0.048734, -0.078970, 0.661089, 0.122608, -0.197529, 0.041636, -0.267628, 0.223149, -0.111994, -0.199118, 0.334751, 0.404263, 0.142519, -0.128719, -0.247396, -0.046187, 0.204986, -0.049429, -0.012921, },
{-0.189666, -0.221403, 0.138197, -0.106486, -0.206231, -0.088470, -0.039685, 0.031667, -0.008363, -0.006506, 0.111924, 0.088466, -0.280915, -0.178556, -0.143727, 0.037895, -0.080746, -0.334223, 0.078226, -0.025554, 0.005768, -0.047054, 0.169837, -0.248999, -0.079840, 0.029219, 0.238752, -0.028196, 0.064475, 0.165191, 0.077817, -0.243884, -0.039784, 0.009637, 0.207785, 0.090717, 0.187959, 0.084336, -0.055303, 0.154690, 0.046482, -0.012854, 0.224501, -0.121794, 0.261758, -0.132405, -0.179176, 0.042281, 0.037436, -0.141558, 0.357968, 0.216402, 0.001690, -0.238781, 0.087297, 0.270262, -0.008349, -0.014526, -0.209436, 0.150527, -0.100278, -0.093429, 0.117302, -0.053813, },
{-0.026850, 0.102857, 0.041303, 0.004996, -0.296060, -0.184016, -0.359133, 0.168741, -0.120323, 0.010959, 0.122815, 0.012171, 0.095365, 0.073523, -0.233149, -0.178543, 0.195558, -0.467409, 0.100570, 0.067904, 0.008554, -0.261765, -0.084824, -0.141438, 0.103500, 0.002144, 0.174484, -0.667811, -0.114974, 0.003335, 0.306615, 0.127154, 0.515281, 0.267194, 0.027465, -0.121632, -0.107955, 0.167686, 0.159789, -0.111388, 0.053073, -0.226511, -0.018477, 0.124152, -0.490383, 0.161006, 0.200377, 0.062482, 0.002314, -0.008978, 0.091551, 0.028229, -0.045757, -0.016707, 0.216754, 0.092816, -0.453924, 0.075340, 0.413832, -0.026453, -0.068531, -0.311149, 0.078472, 0.099653, },
{0.097155, 0.013461, -0.151507, -0.162337, 0.140454, -0.030211, -0.315915, 0.084945, -0.461891, 0.003812, 0.066346, -0.078876, -0.036295, -0.164296, -0.245632, -0.591967, 0.063299, -0.039379, 0.369402, 0.065692, -0.370991, -0.055829, 0.153180, 0.198015, -0.099044, -0.197080, 0.052047, -0.257947, -0.156974, 0.318112, 0.001965, 0.048866, 0.215560, 0.287639, -0.197964, 0.118815, -0.007940, 0.129097, -0.108188, -0.057058, -0.012834, 0.154832, 0.357071, 0.008837, -0.211744, -0.171382, -0.059473, -0.043777, 0.026900, 0.107613, -0.032394, -0.380303, 0.335939, 0.427221, 0.105121, 0.193254, -0.271685, 0.245150, 0.094668, 0.162032, -0.026703, -0.044006, 0.048702, -0.061462, },
{-0.034144, -0.175422, 0.368683, -0.068790, -0.107432, 0.451132, 0.063911, -0.192092, -0.088206, -0.099961, -0.223273, -0.070504, 0.095127, -0.009531, 0.065217, -0.064973, -0.267852, 0.106083, 0.080758, 0.034254, 0.088729, -0.131858, 0.257958, -0.039773, 0.096448, -0.304968, -0.133171, 0.342750, 0.085930, -0.217068, 0.134271, 0.056808, -0.241738, 0.334978, -0.142553, 0.312383, 0.013456, -0.082365, -0.271099, 0.195876, -0.008899, 0.012785, 0.070360, -0.062779, -0.271472, -0.105901, 0.136070, 0.243843, 0.536543, 0.290244, 0.189520, 0.229821, -0.142203, -0.082448, 0.332266, 0.412857, 0.437881, -0.075228, 0.189893, -0.075059, -0.023715, 0.407778, -0.601052, 0.040115, },
{0.061423, -0.026963, 0.044037, -0.031904, -0.302605, 0.110409, 0.225669, -0.280596, 0.125057, -0.179888, -0.040233, 0.046648, -0.243105, 0.216910, 0.317440, -0.087907, -0.082478, -0.105026, 0.075326, -0.084392, 0.124814, -0.159039, -0.088425, -0.015875, -0.158431, -0.133298, 0.324961, 0.126421, -0.022257, 0.015766, -0.018291, 0.140300, 0.123367, -0.391760, 0.207901, -0.272845, 0.127386, 0.322831, -0.367738, 0.133221, 0.067434, -0.125520, 0.109530, 0.079161, 0.472581, -0.014524, -0.109659, 0.073519, -0.060339, -0.219865, -0.069387, 0.165770, 0.455681, -0.071327, -0.416573, -0.186604, -0.174948, -0.363470, 0.032506, -0.498901, 0.076409, 0.215474, -0.012119, 0.124676, },
{0.201871, 0.284089, -0.216258, -0.088197, -0.108533, 0.000796, 0.062120, -0.211562, 0.113479, 0.331982, 0.060628, 0.017843, 0.080418, 0.029691, 0.137503, 0.115484, -0.226526, 0.181433, -0.017272, 0.170784, 0.223374, -0.220746, 0.147453, 0.018558, -0.017763, 0.047895, 0.032344, 0.026745, -0.274102, 0.024815, 0.274560, 0.195924, 0.126534, 0.179395, 0.122279, 0.045665, 0.134496, 0.154448, -0.158609, -0.322697, -0.054101, -0.238362, -0.478955, 0.009661, 0.112219, 0.267480, 0.133912, 0.082335, 0.005652, 0.187965, -0.136989, 0.106229, 0.157576, 0.181399, -0.282210, -0.040959, -0.111432, 0.090738, 0.303269, -0.304201, -0.077874, -0.398647, 0.179033, 0.141630, },
{-0.154982, -0.109951, 0.057998, 0.393648, -0.125665, 0.098153, 0.351706, -0.187551, 0.379364, -0.294446, -0.165316, 0.153827, 0.032936, 0.051291, 0.230195, 0.097802, 0.107939, 0.262312, 0.002590, 0.063984, -0.103041, 0.342467, 0.002500, -0.039532, 0.123155, -0.163589, 0.222726, 0.401695, 0.076467, -0.154634, -0.142994, -0.259512, -0.496149, -0.201667, -0.289399, 0.122903, 0.202203, -0.014023, -0.188732, 0.010909, -0.177229, -0.072255, -0.007519, 0.150267, 0.292131, -0.004618, -0.244922, -0.047817, -0.219439, -0.033033, -0.222480, 0.232457, -0.170858, 0.006220, -0.135853, 0.256605, 0.108184, 0.064614, -0.106676, -0.036729, -0.048721, 0.242883, -0.374901, 0.022296, },
{0.209843, -0.172692, -0.124036, -0.047626, -0.252340, -0.107990, -0.129662, -0.074412, -0.318161, -0.342816, -0.236173, -0.129950, -0.082557, 0.028312, -0.497327, -0.285387, -0.026841, -0.101206, 0.057617, -0.190255, -0.140030, 0.370487, 0.032066, 0.048422, 0.020610, 0.009558, -0.105126, -0.222615, -0.098498, 0.254353, 0.065521, 0.227961, 0.144918, 0.050810, -0.060445, 0.122585, 0.111783, -0.079793, 0.408433, -0.299296, -0.209141, 0.102933, -0.360140, -0.285600, 0.023149, -0.524956, -0.079150, -0.105815, -0.090796, 0.069271, 0.006995, 0.396675, -0.306081, -0.019787, 0.089402, 0.057104, -0.485700, 0.062859, 0.021278, 0.067134, 0.147141, 0.060665, -0.026779, -0.231120, },
{0.039644, 0.123203, -0.204226, 0.080707, 0.012503, -0.124702, -0.342159, 0.238722, 0.170810, 0.223509, 0.249393, -0.055438, -0.176130, 0.007761, -0.025853, -0.055748, 0.059525, -0.099428, 0.207000, 0.174798, 0.133417, -0.105882, -0.309020, -0.032878, 0.182450, 0.233864, 0.142921, -0.300542, -0.121063, 0.071548, 0.186051, 0.107418, 0.011075, 0.007892, -0.044811, -0.092150, 0.050444, 0.291263, 0.076955, -0.202917, -0.028651, 0.260739, 0.068726, -0.013944, 0.138783, 0.139820, -0.164220, -0.245384, -0.100259, -0.231763, 0.045495, -0.292151, -0.150920, 0.097488, 0.314561, -0.133866, -0.053048, 0.136900, -0.482046, 0.266329, 0.186848, -0.148789, -0.022305, -0.050460, },
{0.429132, 0.001840, 0.161461, 0.287797, 0.400912, -0.157622, -0.034361, 0.133721, 0.059593, 0.211449, 0.450724, 0.093671, 0.273037, -0.191902, -0.097753, 0.014236, 0.016153, 0.040968, -0.016747, 0.026380, 0.175677, -0.034706, 0.078859, 0.091680, -0.069323, 0.294718, 0.129345, 0.113964, 0.018164, 0.098095, -0.011883, 0.159964, -0.127688, 0.271195, 0.080094, 0.188896, -0.197463, 0.121313, -0.033948, -0.063127, 0.078777, 0.548094, 0.284722, -0.048192, -0.351209, -0.099816, 0.290088, 0.161346, 0.212088, 0.217541, 0.239059, -0.411721, -0.029237, 0.187120, 0.023091, 0.003260, 0.408838, 0.432885, 0.252214, 0.259290, 0.198247, -0.009527, -0.186408, 0.196664, },
{-0.188478, 0.127193, 0.063256, -0.010096, 0.086352, -0.072172, -0.390209, -0.312801, -0.068717, 0.022012, 0.117165, 0.134020, -0.238000, -0.124829, 0.073449, -0.031777, 0.249696, -0.134310, 0.105222, -0.205537, -0.017271, -0.190865, 0.202612, 0.105966, 0.166101, 0.124950, -0.240264, 0.129228, -0.106844, 0.093041, 0.042083, 0.065553, 0.276215, 0.001841, 0.285293, -0.015267, -0.210282, 0.453914, -0.179943, -0.152919, 0.075140, 0.207124, 0.401366, -0.170504, -0.289344, -0.229550, 0.448218, 0.110458, 0.165003, 0.345523, 0.100154, -0.038777, 0.091047, -0.237011, 0.041389, -0.165926, -0.163603, -0.206547, -0.016374, -0.034752, 0.045434, 0.028428, -0.126140, 0.146321, },
{-0.013045, 0.016659, 0.006708, 0.017090, -0.293622, -0.220046, -0.122337, 0.007727, -0.104899, -0.080570, -0.063466, -0.052827, -0.251157, 0.092609, 0.211171, 0.030407, 0.327579, -0.023552, 0.235815, 0.271740, 0.018732, 0.294601, -0.402594, 0.362576, -0.411593, -0.141280, -0.296171, -0.282292, -0.145527, 0.196767, -0.064513, 0.241578, 0.173713, -0.288849, -0.067448, -0.407321, 0.506103, 0.280798, 0.161336, 0.150727, 0.074421, 0.240333, -0.055637, -0.063167, 0.191340, -0.094432, -0.294257, -0.165592, -0.129001, -0.096605, 0.027746, 0.124655, 0.288204, -0.008334, 0.080935, -0.156332, 0.020242, -0.057792, -0.190213, -0.094259, 0.061488, -0.023241, 0.186205, 0.081364, },
{-0.136843, 0.008819, -0.133463, -0.007400, -0.085155, -0.204202, -0.298553, -0.175931, 0.124912, -0.080255, 0.097796, 0.170474, -0.283061, -0.061292, -0.172548, 0.036702, 0.104705, -0.170351, -0.081913, 0.089864, -0.404941, -0.174842, -0.047308, -0.190730, -0.176070, -0.039516, -0.128790, -0.158433, -0.003662, 0.056598, 0.090530, -0.169054, 0.225685, 0.030669, 0.185146, -0.000385, -0.027462, 0.029916, -0.236371, -0.337747, 0.176551, 0.289144, 0.126249, 0.151178, -0.290835, 0.380208, 0.347430, 0.099504, -0.083814, -0.056152, 0.185815, -0.331538, -0.010442, -0.205760, -0.024626, -0.147150, -0.156601, 0.144345, -0.115893, 0.224372, -0.000400, -0.108118, 0.056712, 0.060812, },
{0.085810, 0.094549, -0.068507, 0.035360, 0.068749, -0.209041, 0.224416, 0.099850, 0.270088, -0.069425, -0.110348, -0.325276, 0.337532, 0.088363, 0.134425, -0.059548, -0.112097, 0.249807, 0.296452, 0.042150, -0.061666, 0.192969, 0.073575, -0.086044, 0.019063, 0.093599, 0.166197, -0.093558, -0.099615, 0.456665, -0.256434, -0.113948, -0.041867, -0.105466, 0.042074, 0.432261, 0.158695, 0.109888, -0.004996, 0.305530, 0.179180, -0.136460, -0.031134, -0.510400, 0.348542, 0.060952, -0.386241, -0.080369, -0.343080, 0.144915, 0.147966, -0.308386, 0.070890, 0.111044, -0.009626, -0.292236, 0.146946, -0.040392, -0.082902, -0.112266, 0.020727, -0.111255, 0.331845, 0.058550, },
{-0.043955, -0.259405, -0.049809, 0.206130, 0.012393, 0.039251, 0.122025, 0.102189, -0.397961, -0.241103, -0.064381, -0.143122, 0.129105, -0.110033, -0.048223, -0.046052, 0.152663, -0.091559, -0.100958, -0.063299, 0.104611, 0.156937, 0.364243, -0.020887, 0.146672, 0.040117, 0.169666, -0.227227, 0.082662, -0.157479, 0.229417, -0.045087, -0.110146, 0.081565, 0.057340, 0.215903, -0.407863, 0.133930, 0.033686, -0.071789, -0.310176, 0.054630, 0.121672, 0.033938, -0.056253, -0.359261, 0.126293, -0.042182, 0.274639, -0.164568, -0.035790, 0.456906, -0.001210, 0.093523, -0.114824, 0.215708, -0.230798, -0.054976, 0.128874, 0.605902, 0.061951, -0.055103, 0.113281, 0.321383, },
{-0.068347, -0.118546, 0.032837, 0.130643, 0.011455, 0.070460, 0.214276, 0.132527, 0.075096, 0.127615, -0.129030, -0.000119, -0.205624, -0.018837, 0.243057, -0.422168, 0.227482, 0.235325, 0.239534, 0.188790, 0.152783, 0.103847, 0.108854, -0.168931, 0.028663, -0.026256, 0.411741, 0.399281, 0.165212, -0.036261, 0.009678, 0.184827, -0.020186, 0.108527, -0.372000, 0.549310, -0.275262, 0.048567, 0.122185, 0.041860, 0.040334, 0.381806, 0.448850, -0.087096, 0.163876, -0.296066, -0.005279, 0.072357, -0.060356, -0.343047, 0.151435, 0.037195, 0.560458, 0.152736, 0.253339, 0.216600, 0.150450, -0.018500, 0.047049, -0.047770, 0.012151, 0.046030, -0.042796, -0.049259, },
{-0.017553, 0.051242, -0.100124, -0.043553, 0.084980, -0.013110, 0.337993, -0.061422, 0.298559, -0.273414, 0.170573, 0.305177, -0.043434, 0.256800, 0.303827, 0.467728, -0.145433, 0.018295, -0.148778, -0.120016, 0.187238, -0.003138, 0.218358, -0.020409, 0.369659, -0.216560, -0.308224, 0.201086, 0.001634, -0.014323, 0.012035, -0.165633, -0.008508, -0.303943, 0.223832, -0.091142, -0.220812, -0.334658, 0.151323, -0.150239, 0.089601, -0.389927, -0.626423, 0.374457, 0.061039, 0.282369, -0.032414, 0.230489, -0.367001, 0.241843, -0.142969, 0.232419, -0.332230, 0.178395, -0.210020, -0.204595, 0.018187, -0.384641, -0.142936, -0.193639, -0.306740, 0.126706, -0.065923, 0.121475, },
{0.076110, -0.101897, -0.438022, -0.108323, -0.025661, -0.043094, 0.047567, 0.369204, 0.112082, -0.027718, -0.076295, -0.049798, 0.162638, 0.058640, -0.251478, 0.072975, 0.122437, -0.044907, 0.223470, -0.150157, 0.389536, 0.250753, 0.056686, -0.111616, -0.122161, -0.007495, -0.178640, 0.166655, -0.026209, 0.120763, -0.194932, 0.238059, -0.122207, 0.132424, 0.170088, -0.144016, 0.015364, -0.197140, 0.065095, -0.017274, -0.383631, -0.240287, 0.006041, -0.424801, -0.002541, -0.398347, -0.153758, 0.098353, 0.218722, -0.003744, -0.251975, 0.037904, 0.325879, -0.270028, -0.067518, 0.020714, 0.036550, 0.057749, 0.046073, -0.275897, -0.073873, -0.091179, -0.079679, -0.082863, },
{0.054393, 0.292636, 0.043067, -0.071884, -0.266707, 0.057773, -0.237958, 0.049710, -0.267222, -0.207344, -0.419048, -0.200159, -0.346733, 0.113437, -0.401186, 0.249661, -0.139207, -0.313361, -0.002234, -0.121585, -0.225137, -0.279095, 0.089579, 0.037264, 0.309056, -0.263779, 0.145786, -0.303497, 0.153576, 0.178784, 0.400710, -0.346579, 0.221585, -0.013467, -0.113861, 0.023861, 0.047094, -0.103561, -0.093772, 0.081674, 0.090252, -0.204083, -0.296970, 0.300566, 0.031132, 0.132096, -0.010711, 0.029471, -0.246822, 0.341025, -0.308066, 0.142175, -0.197945, 0.122970, -0.075463, 0.071580, -0.477999, 0.170081, -0.225087, 0.164728, 0.140098, -0.036056, 0.425566, -0.201057, },
{-0.002191, -0.113575, 0.251156, -0.137929, 0.255927, 0.259105, -0.184335, -0.268629, -0.125299, 0.155871, 0.343776, -0.003586, 0.061117, -0.037216, 0.058699, 0.071400, 0.030176, -0.275200, 0.031874, -0.073814, -0.085155, 0.187712, -0.151571, 0.120340, -0.133157, -0.008463, -0.039335, -0.208785, -0.133557, 0.382221, -0.074026, 0.133498, 0.072074, 0.062016, 0.104961, 0.055734, -0.008014, 0.089002, 0.211942, 0.078243, 0.119653, 0.325737, 0.188524, -0.004635, 0.080091, -0.130234, 0.116382, -0.198640, -0.217014, 0.068737, 0.173556, 0.015129, 0.202308, -0.032465, 0.099285, -0.137433, -0.263632, 0.095834, 0.015423, 0.343905, 0.013826, -0.062184, -0.075573, -0.033188, },
{-0.029004, 0.119095, -0.009392, -0.065606, 0.141540, 0.057166, 0.149744, -0.086366, 0.124142, 0.420417, 0.031781, -0.058453, 0.080957, -0.225675, 0.082026, 0.162894, -0.468504, -0.020334, 0.166948, 0.096132, -0.300295, -0.322981, -0.024406, -0.118685, 0.066607, -0.350394, -0.011838, -0.212148, 0.132840, 0.153550, 0.356549, -0.037556, 0.136256, -0.067221, 0.292688, 0.124255, -0.149215, 0.241662, -0.048929, -0.215463, -0.006327, -0.031292, 0.000204, -0.115178, -0.020792, 0.147410, -0.109659, 0.511165, -0.229355, 0.151328, 0.216435, -0.236404, 0.102029, 0.042141, 0.019714, 0.075272, 0.142250, -0.070102, 0.201810, 0.003925, 0.182112, -0.039312, -0.128604, 0.083993, },
{0.051605, -0.167360, -0.030382, 0.104456, -0.059747, -0.005420, -0.149898, 0.078066, -0.146487, 0.057614, -0.087164, -0.263322, -0.037674, -0.053425, -0.373463, -0.456986, 0.041228, -0.142008, -0.111849, -0.288197, -0.192822, 0.266790, -0.103705, 0.194394, 0.217172, 0.211178, -0.005241, -0.029578, -0.363907, 0.405550, 0.036127, -0.125523, -0.057128, -0.235183, 0.002044, 0.107658, -0.013237, 0.184120, 0.176603, 0.018730, -0.187375, 0.197871, -0.142248, -0.294754, 0.161715, -0.142153, 0.095919, 0.023127, -0.115959, 0.039969, -0.008844, 0.082228, 0.059327, 0.137001, -0.154317, -0.212619, 0.049861, -0.128710, 0.107825, -0.032124, -0.122793, 0.070233, 0.147744, -0.084737, },
{0.232175, -0.000723, -0.185857, 0.057753, -0.135116, -0.318262, 0.127925, 0.213439, 0.080046, -0.167806, -0.021843, 0.195609, 0.151118, -0.125625, 0.091266, 0.008293, -0.049059, 0.228862, 0.011548, 0.025263, 0.072223, -0.137229, -0.176683, 0.101185, -0.254023, -0.036095, -0.191911, 0.001466, -0.110863, 0.114604, 0.044358, 0.330676, 0.157442, -0.037330, 0.362525, -0.072353, 0.074456, 0.067397, 0.015671, 0.403634, 0.071249, -0.055608, 0.157847, -0.199673, 0.230034, -0.110077, -0.203266, -0.046662, -0.064232, 0.150322, 0.091959, 0.171903, 0.033295, -0.247610, 0.141123, 0.112228, 0.255018, 0.181750, 0.065787, 0.074697, -0.068077, -0.273263, 0.522883, 0.008045, },
{-0.349855, -0.142053, 0.412431, -0.234875, 0.194382, 0.332154, -0.161419, 0.095744, 0.112786, 0.180670, 0.006320, -0.179538, -0.105890, 0.017360, 0.257246, 0.217810, 0.092396, -0.125870, 0.073194, 0.495861, 0.226652, 0.006972, 0.050237, -0.187746, 0.271233, -0.036929, 0.081111, 0.057928, 0.347161, -0.114113, 0.169141, -0.156518, -0.084476, -0.110962, -0.018910, -0.189717, 0.277947, 0.012171, -0.158170, -0.111851, 0.167205, -0.418839, 0.185017, -0.043415, 0.067184, 0.398627, -0.019983, 0.034270, -0.059770, 0.011492, -0.050285, -0.170486, 0.119256, 0.226230, 0.013240, -0.325859, -0.152802, -0.020188, -0.041167, 0.075496, 0.050349, -0.044698, -0.316219, -0.081842, },
{-0.025042, -0.015883, 0.276697, -0.150475, -0.447773, 0.024751, -0.155165, 0.230879, -0.183248, -0.094599, -0.189847, -0.110133, -0.254249, 0.092005, -0.217550, -0.352891, 0.282594, 0.001266, -0.126129, -0.253123, -0.175387, -0.157476, 0.006453, -0.020095, 0.135420, 0.131588, 0.210166, -0.044086, -0.033363, 0.013401, -0.129205, 0.025871, 0.138694, 0.539895, -0.190622, -0.038857, -0.016925, -0.376725, 0.148414, -0.196097, -0.287777, 0.196331, 0.467305, 0.072916, -0.089087, -0.287003, -0.020057, -0.459172, -0.112650, -0.380970, 0.020008, 0.152519, 0.047705, 0.043052, 0.081955, -0.285039, -0.163381, -0.104944, -0.238299, 0.156436, -0.191772, 0.181947, -0.041377, 0.269899, },
{-0.112732, 0.159145, -0.020329, 0.185856, 0.155543, 0.160826, -0.081588, 0.098691, -0.043496, 0.526214, 0.098393, -0.163503, 0.082755, -0.482737, 0.203471, -0.304108, 0.076931, 0.217778, 0.001006, 0.045682, 0.015392, 0.215045, 0.343403, 0.129039, 0.331898, 0.174603, 0.116032, -0.088947, 0.240872, 0.032868, -0.282687, -0.036210, 0.180431, 0.294275, -0.065333, 0.186479, -0.092838, 0.048623, 0.017895, 0.140877, 0.473965, 0.129271, -0.044061, -0.093997, -0.035206, -0.151563, 0.141388, 0.130620, -0.099306, 0.165081, 0.287333, -0.106698, 0.239010, -0.062786, -0.072573, -0.312826, 0.403205, 0.298687, 0.224424, -0.034157, 0.317373, -0.160908, -0.147472, 0.030763, },
{-0.033443, -0.248986, 0.266710, 0.009122, 0.054391, -0.158377, 0.403066, -0.186239, 0.305116, -0.266984, -0.024444, 0.239465, -0.315494, -0.015625, -0.100714, 0.193896, 0.020471, -0.043999, 0.259791, -0.096182, -0.239480, 0.145986, -0.215378, -0.107448, 0.019217, -0.031303, 0.103320, -0.038844, -0.009449, 0.077047, -0.074244, 0.041753, -0.018205, 0.001446, -0.015353, -0.428653, 0.039697, -0.396086, -0.138212, -0.111955, 0.009510, -0.070994, -0.035818, 0.599308, -0.091824, 0.213568, -0.022979, -0.067654, -0.302831, -0.106922, -0.026237, 0.072314, -0.160227, 0.216890, -0.141987, 0.181798, -0.250181, -0.298899, -0.525106, 0.050854, -0.032352, -0.123866, 0.130890, -0.030154, },
{-0.031292, -0.394596, 0.083950, -0.064816, 0.140094, -0.002075, 0.096834, -0.228981, 0.386714, 0.023922, 0.059609, -0.228004, -0.110812, -0.108697, -0.171996, 0.221339, -0.005511, -0.106057, 0.239021, 0.192824, 0.013415, 0.014835, -0.057816, 0.181050, 0.197423, 0.150764, -0.128742, 0.069808, 0.072468, -0.113715, -0.134655, -0.099331, -0.174311, -0.240100, 0.084784, -0.297631, 0.199811, -0.057927, -0.100628, -0.297929, 0.250959, -0.134543, -0.282340, 0.296544, 0.275725, 0.211416, 0.248025, -0.251018, -0.247188, -0.132480, -0.137167, 0.087639, -0.074630, -0.140168, 0.102848, -0.430779, -0.332264, -0.272619, -0.255338, 0.132304, -0.177265, 0.108437, 0.351867, -0.202286, },
{0.122229, 0.343488, 0.348167, -0.203044, -0.056748, 0.287489, -0.177676, 0.098041, 0.062872, -0.188873, -0.119305, -0.219123, -0.220448, 0.081132, 0.100975, 0.150961, -0.012277, -0.251265, 0.120352, -0.031347, -0.118390, -0.250585, -0.166062, -0.308488, 0.073404, 0.003732, 0.182625, 0.011025, 0.396344, -0.208349, -0.163694, 0.039031, -0.093897, 0.242301, 0.183532, 0.041031, 0.222531, -0.429418, -0.021171, -0.296825, -0.032556, 0.251002, 0.389450, -0.153746, -0.020943, 0.341837, 0.047241, -0.100056, -0.064214, -0.221132, -0.131945, 0.351825, 0.021799, -0.140871, -0.246223, -0.169350, 0.037732, 0.048396, -0.026028, 0.114070, -0.224427, 0.160533, 0.060592, 0.222159, },
{0.105003, -0.016868, 0.008949, 0.105186, 0.056322, 0.064064, -0.173886, 0.020608, 0.005829, 0.162612, 0.030193, 0.008097, 0.144955, -0.161680, -0.234425, 0.014006, 0.008968, -0.075290, -0.224187, -0.169432, 0.015822, 0.207677, 0.366173, -0.018280, 0.137800, -0.136511, -0.036232, -0.196173, 0.068697, 0.166833, 0.246487, 0.178889, -0.283320, -0.267014, -0.303057, 0.072462, -0.243721, -0.080053, 0.265913, -0.184598, -0.323400, -0.145085, -0.332462, 0.104637, -0.013815, -0.153885, -0.235732, -0.234926, 0.033382, 0.284430, -0.268423, -0.098232, -0.280061, 0.153886, -0.025614, 0.163020, -0.439603, 0.117215, -0.096316, 0.101683, -0.384123, 0.053827, 0.171974, 0.232528, },
{-0.034321, -0.150788, 0.156078, -0.222386, 0.218418, 0.163239, -0.071696, -0.109764, -0.098886, 0.011738, -0.021403, -0.314541, 0.355439, 0.163949, 0.155530, -0.155628, 0.300736, -0.201589, 0.225668, 0.221288, 0.042810, -0.065504, -0.248033, 0.119244, 0.258471, 0.097733, -0.120624, 0.084086, -0.201330, 0.095233, -0.305508, -0.127131, 0.089683, -0.473605, -0.128055, -0.304879, 0.478114, -0.330721, -0.037663, -0.248800, 0.071059, -0.259220, -0.001099, -0.246056, 0.169762, -0.021510, 0.088107, -0.080663, 0.251207, 0.203640, -0.169131, -0.033276, 0.269408, -0.007976, 0.237713, -0.410740, -0.301676, -0.191162, 0.587721, 0.179835, 0.113688, -0.101103, 0.158651, -0.152170, },
{0.092077, 0.190950, 0.453497, 0.031941, 0.221563, -0.089428, -0.070100, -0.244376, 0.483452, 0.126951, -0.010741, -0.104217, -0.601209, -0.388461, 0.133614, -0.053126, -0.054835, 0.000918, 0.079074, 0.036300, 0.087286, 0.194919, -0.133991, 0.079368, 0.025228, -0.129073, 0.336837, -0.087091, 0.088226, 0.030389, -0.207368, 0.123918, 0.233425, 0.031634, -0.177457, 0.129991, -0.102551, 0.124815, -0.371045, 0.057921, 0.242999, -0.051182, 0.329984, -0.257190, 0.303408, 0.381712, -0.104840, -0.318926, -0.419652, -0.214332, 0.272483, -0.342713, -0.121296, -0.119403, 0.160573, -0.461074, 0.188008, 0.244397, -0.077145, 0.093735, 0.119474, -0.077224, -0.019670, 0.082426, },
{-0.056586, 0.224895, 0.221483, -0.129240, 0.081878, 0.075935, 0.276884, -0.071400, -0.040354, -0.001524, -0.286626, -0.096569, 0.187399, -0.095486, 0.270553, -0.295319, -0.064345, -0.079574, -0.115885, 0.329986, -0.286121, 0.030328, 0.005034, 0.053116, -0.026883, -0.196147, 0.214560, 0.362087, 0.538629, -0.044872, -0.231150, -0.006930, 0.171897, -0.152540, 0.160666, 0.637982, 0.391285, -0.205643, -0.311165, 0.251914, -0.006213, -0.108623, -0.075274, -0.226889, -0.185203, -0.053843, 0.001374, -0.004542, -0.048939, 0.018193, -0.000571, 0.249768, 0.025257, 0.162712, -0.179548, 0.124815, 0.000948, 0.030647, 0.027250, 0.048235, -0.243210, 0.013488, -0.106037, -0.193159, },
{-0.218171, -0.284355, 0.104098, -0.030105, -0.204666, 0.206989, 0.175607, 0.087659, 0.037005, 0.058385, -0.537944, -0.142718, -0.178662, 0.021138, -0.140706, -0.139682, -0.093180, -0.050313, 0.066206, 0.034339, -0.209918, -0.023256, 0.069730, -0.034373, -0.494410, -0.395474, 0.563264, 0.035062, 0.094520, 0.344097, -0.078667, -0.160631, 0.047160, -0.017208, -0.161529, 0.410360, 0.299513, -0.125958, -0.212423, 0.242356, -0.064861, 0.173208, 0.073769, -0.190635, 0.121611, -0.068033, -0.127299, -0.064379, -0.214042, 0.023451, 0.088841, -0.103763, 0.121169, 0.314541, -0.044855, 0.196153, 0.150827, 0.167691, -0.138239, -0.231447, 0.004031, 0.159301, 0.114556, 0.045176, },
{-0.080067, 0.119278, -0.191682, 0.138984, 0.182377, -0.111862, -0.141717, -0.184832, -0.207303, 0.330313, 0.219066, -0.058004, -0.175468, -0.086832, -0.077459, -0.116238, -0.324613, -0.091689, 0.131419, 0.091397, -0.128289, -0.117339, 0.072863, 0.216751, -0.373300, 0.183909, 0.096917, 0.072424, -0.051757, 0.278511, -0.240656, 0.312787, 0.636164, 0.076382, 0.076370, -0.001275, -0.065337, 0.323340, -0.062597, 0.131512, 0.301302, 0.185443, 0.102084, 0.052414, 0.104768, -0.250257, 0.041463, 0.117962, -0.408730, 0.157173, -0.129476, -0.104609, 0.064998, 0.048033, 0.165982, -0.129411, 0.011115, -0.003745, 0.276208, 0.124622, 0.117870, -0.346111, -0.014531, 0.235754, },
{0.130107, -0.202700, -0.227927, 0.100177, 0.561033, -0.661876, 0.183021, -0.108527, 0.221639, 0.346097, 0.167664, -0.088751, 0.285386, -0.413312, -0.005564, -0.100811, 0.357973, 1.032305, -0.411359, 0.035305, 0.164567, 0.287029, -0.370373, 0.213697, -0.458729, -0.231965, 0.181811, -0.096086, 0.143541, 0.160711, -0.500071, 0.219440, 0.124451, -0.233516, -0.467761, 0.352046, 0.241485, 0.476541, -0.248781, 0.534987, 0.293011, -0.024343, 0.191879, -0.428150, 0.325035, -0.361755, -0.244279, 0.303811, 0.372894, 0.360387, 0.456929, -0.877018, 0.420750, -0.084412, 0.216696, 0.254694, 1.041870, -0.141248, 0.654149, -0.315355, 0.194865, 0.208776, -0.234511, -0.005774, },
{-0.100346, -0.021397, 0.182490, -0.022472, 0.193011, 0.528359, -0.057885, -0.158864, 0.010234, -0.083072, -0.509740, -0.162388, -0.186913, -0.178603, 0.036602, -0.113677, -0.254638, -0.094860, 0.143529, -0.220164, 0.016632, 0.145089, 0.219356, 0.137965, 0.057758, -0.205721, 0.092954, 0.059458, 0.083402, -0.121699, 0.109543, -0.132545, -0.206363, 0.016131, -0.213188, 0.406712, -0.088344, 0.002260, -0.025388, 0.015221, -0.182670, 0.019413, 0.022944, -0.142335, -0.363528, 0.084225, 0.254052, 0.138418, 0.421903, -0.025443, -0.045749, 0.146003, -0.019403, 0.121593, -0.050048, 0.510683, 0.134040, 0.075824, -0.102193, 0.189650, -0.014153, 0.448736, -0.303815, 0.244737, },
{0.219944, -0.197039, -0.190058, 0.139723, -0.006018, -0.046861, -0.304479, 0.090960, -0.281380, -0.087043, 0.194705, -0.083210, -0.132559, -0.126052, -0.406993, -0.298945, 0.164313, -0.116518, 0.095846, -0.057757, -0.136183, 0.218070, 0.288359, -0.084254, -0.384380, 0.142826, -0.101476, -0.207772, -0.091866, -0.019220, 0.168356, 0.227761, 0.420386, 0.203777, -0.096123, 0.037058, -0.144972, 0.153790, -0.079384, -0.102157, 0.036916, 0.631058, 0.497761, -0.413707, -0.052828, -0.118116, -0.060078, -0.009590, 0.104991, 0.244385, 0.221716, -0.254301, -0.015398, -0.022570, -0.053346, 0.107042, 0.195439, 0.333073, 0.315221, 0.263219, 0.224051, 0.066235, -0.076479, 0.095475, },
{-0.293811, 0.578986, 0.203451, 0.166690, 0.125159, 0.102789, -0.149295, -0.255182, -0.111232, 0.144944, 0.389935, 0.088492, -0.239788, -0.194103, 0.279366, 0.155086, -0.270536, 0.229077, 0.121110, -0.036319, 0.028447, -0.389951, 0.428151, -0.067802, 0.171139, 0.039481, 0.528581, -0.116402, 0.264940, -0.296457, 0.087787, 0.020491, 0.019761, 0.300404, 0.315616, 0.131366, -0.285971, 0.312642, -0.286974, 0.271909, 0.082454, 0.168530, 0.192624, -0.024294, -0.265200, 0.179796, 0.229173, 0.392700, -0.289637, 0.084673, 0.412800, -0.554379, -0.041265, -0.039124, -0.105560, -0.014310, 0.263088, 0.122899, 0.070031, 0.323509, 0.020987, -0.387105, -0.002251, 0.124311, },
{-0.022220, 0.120321, 0.379143, 0.075508, -0.228935, 0.023752, 0.126684, -0.075281, -0.234750, 0.114475, -0.145715, -0.136885, 0.111216, 0.317152, 0.321026, -0.185486, 0.081786, -0.069269, 0.235495, 0.322120, 0.227061, -0.159249, -0.050874, 0.313159, -0.119173, -0.155834, 0.115252, 0.026359, 0.217181, -0.074449, -0.142408, 0.157537, 0.090688, -0.304099, 0.077505, -0.202382, 0.074335, 0.145828, 0.095725, 0.149497, 0.136053, 0.061119, 0.080352, -0.228490, -0.246435, -0.047933, -0.041504, 0.165043, -0.068045, -0.001002, -0.137011, 0.009601, -0.140301, 0.066052, 0.264722, -0.328127, -0.275235, -0.192814, 0.331741, 0.130198, -0.099121, 0.138211, -0.285806, 0.136891, },
{-0.188781, -0.026073, 0.059414, -0.247784, 0.197200, -0.104213, -0.200766, -0.008468, 0.330192, 0.169018, 0.327805, 0.195331, -0.220255, -0.216745, 0.016279, 0.086624, -0.022310, -0.064360, 0.150383, 0.222420, -0.059218, -0.023024, -0.216956, -0.113938, 0.052942, 0.012005, 0.344967, -0.172343, 0.199180, -0.252893, 0.225824, 0.041318, 0.206161, 0.166335, -0.110196, 0.117134, -0.144855, 0.427821, -0.195063, -0.227269, 0.039093, 0.407559, 0.524329, 0.055501, -0.368328, 0.124331, -0.061701, 0.140099, 0.130919, -0.162831, 0.203790, -0.488619, 0.063101, 0.005213, 0.253333, 0.066941, 0.036025, 0.295109, 0.089497, 0.065861, 0.134759, -0.165648, -0.325549, -0.009036, },
},
};

const float W1[HIDDEN_LAYER_SIZE][AC_SPACE_SIZE] = {
{0.007638, 0.080703, 0.000971, 0.019780, },
{0.015129, -0.027225, 0.200349, -0.078176, },
{0.037978, -0.257225, -0.053396, 0.028115, },
{0.021030, -0.052302, 0.003449, -0.000399, },
{-0.050346, -0.001812, 0.079754, 0.179964, },
{0.016116, -0.037924, -0.058155, -0.114627, },
{-0.074729, 0.196547, -0.136569, -0.150441, },
{0.041790, 0.033939, 0.071247, -0.037734, },
{-0.089594, 0.037220, -0.189040, -0.060117, },
{-0.019770, -0.063787, 0.077815, 0.064941, },
{-0.012625, 0.032973, 0.150051, 0.135549, },
{-0.040728, -0.020778, 0.100750, -0.093088, },
{-0.054008, 0.148167, 0.136945, 0.026147, },
{0.015350, 0.108595, -0.024891, -0.089090, },
{-0.096376, -0.137842, -0.130913, -0.028382, },
{-0.116682, -0.095891, 0.003777, -0.132940, },
{0.026536, 0.079418, 0.009259, 0.192718, },
{-0.365780, 0.027301, -0.080030, 0.031054, },
{-0.022660, -0.051833, -0.022782, 0.038853, },
{0.015667, -0.030294, 0.032461, 0.115575, },
{-0.018430, -0.158816, 0.081770, 0.000251, },
{-0.079573, 0.057446, -0.043233, 0.123147, },
{-0.038985, -0.003356, 0.139391, -0.159080, },
{-0.003158, 0.023962, -0.020406, 0.036080, },
{0.220025, 0.049992, 0.042117, -0.024932, },
{0.031298, 0.049667, 0.057333, 0.046255, },
{-0.018199, -0.137343, -0.041261, -0.057876, },
{-0.101752, 0.083114, -0.165517, -0.230545, },
{-0.076689, -0.151855, -0.105158, -0.025652, },
{0.077029, 0.177979, -0.047023, 0.048898, },
{0.053180, -0.123820, 0.182708, -0.046489, },
{-0.011415, -0.009593, 0.013940, 0.020049, },
{0.090618, 0.151648, 0.056159, 0.001579, },
{-0.089691, -0.097452, 0.132861, 0.036698, },
{0.064330, 0.081569, 0.072788, -0.046967, },
{-0.194313, 0.069413, 0.084157, 0.159103, },
{0.115986, 0.142000, -0.119429, 0.177591, },
{-0.092355, -0.082045, 0.094335, 0.167299, },
{-0.042243, 0.089884, 0.049493, -0.020372, },
{-0.161361, -0.035998, -0.074074, -0.069039, },
{0.000017, -0.076382, 0.050438, 0.197341, },
{-0.026108, -0.214498, 0.072875, 0.061124, },
{-0.064822, -0.340270, -0.182427, 0.071114, },
{0.158856, -0.240798, -0.041739, -0.079402, },
{-0.032469, 0.112785, -0.036466, 0.036079, },
{-0.009117, -0.079836, -0.091888, -0.095062, },
{0.001329, -0.072295, 0.049218, 0.023387, },
{-0.121504, -0.048869, 0.031556, -0.146417, },
{-0.054060, -0.058634, -0.156276, -0.038711, },
{0.049991, 0.102309, 0.037863, 0.015936, },
{0.025968, -0.095714, 0.001936, 0.017896, },
{0.068268, -0.032103, -0.129179, -0.315129, },
{-0.020311, -0.026648, -0.168730, -0.006585, },
{0.004019, -0.099126, 0.010148, -0.028046, },
{0.033298, 0.003591, -0.039135, 0.158196, },
{-0.243585, -0.112831, -0.063793, -0.021353, },
{-0.317232, -0.145067, -0.194620, 0.141118, },
{-0.080173, -0.087417, 0.082904, 0.059309, },
{0.033232, 0.220820, 0.033976, 0.120855, },
{0.031551, -0.078680, 0.025922, 0.133608, },
{-0.005846, -0.035386, 0.005911, 0.049585, },
{-0.043112, -0.113035, -0.096242, -0.052438, },
{0.087006, 0.092661, 0.139170, -0.011194, },
{0.014001, -0.043016, 0.048691, 0.003810, },
};

const float b0[HIDDEN_LAYER_SIZE] = {0.004052, -0.232200, 0.037893, -0.007980, -0.019182, -0.131592, -0.123734, -0.010459, 0.067834, 0.099409, -0.048238, -0.105147, 0.063087, -0.187419, -0.162206, -0.256301, 0.102933, -0.062818, 0.125102, -0.010081, 0.220668, 0.018933, 0.192894, 0.051064, -0.229458, -0.387618, 0.029370, 0.066579, 0.201479, 0.222870, -0.305800, -0.137346, 0.108096, -0.283423, -0.043929, -0.073949, -0.013551, -0.137871, -0.124932, 0.257463, -0.030372, 0.021044, -0.226483, 0.205912, -0.324606, 0.253998, -0.133609, -0.199636, -0.193380, 0.246820, 0.034619, 0.107551, -0.020499, -0.330712, 0.154169, 0.036052, -0.050413, -0.176393, -0.108688, 0.130184, -0.442208, 0.079317, -0.268000, 0.052224, };

const float b_hidden[NUM_HIDDEN_LAYER - 1][HIDDEN_LAYER_SIZE] = {
{-0.013974, 0.029783, 0.040972, 0.038595, -0.017082, 0.005989, 0.321609, -0.131086, 0.439392, -0.154826, -0.087365, 0.333516, -0.091481, -0.044939, 0.029542, 0.558646, -0.371650, 0.128551, 0.152314, -0.195089, 0.046233, -0.157671, 0.003561, -0.177847, -0.043218, -0.210663, 0.130456, 0.294956, 0.135748, -0.275366, 0.114171, 0.077480, -0.145572, 0.019667, 0.075015, -0.157315, -0.179902, -0.107004, -0.058738, 0.098277, -0.175566, -0.136527, -0.038107, 0.327385, 0.135881, 0.105353, 0.104756, 0.058046, -0.117321, -0.151749, -0.095443, 0.038011, -0.077233, -0.056446, -0.171618, 0.111485, 0.132705, 0.056157, -0.449609, -0.195824, -0.231713, -0.076240, 0.102130, 0.089289, },
};

const float b1[AC_SPACE_SIZE] = {-0.025845, -0.128961, -0.058074, -0.300183, };

const float ob_mean[OB_SPACE_SIZE] = {-0.037703, -0.123653, 0.012557, -0.054838, -0.487743, -0.003144, 0.534264, 0.090226, 0.108956, 0.409809, 0.056415, 0.184162, -0.036831, };

const float ob_std[OB_SPACE_SIZE] = {0.410517, 0.348485, 0.429097, 0.353292, 6.480790, 0.178630, 1.670554, 0.780174, 1.040977, 1.148522, 0.499461, 1.129618, 0.241987, };

#endif
